228 64
57 0.25467995 -0.20924044 0.43275788 0.003154929 0.28335473 0.054177523 -0.08180845 -0.37324613 -0.44687113 0.5552699 0.3085921 -0.42184165 0.20893179 -0.1669286 -0.10849036 -0.35749936 0.37049127 -0.2637103 1.5270381 -0.047408342 0.08203295 0.5427257 0.6290154 -1.0564072 -0.77269536 -0.40795794 -0.06582129 0.3705049 0.40344045 -0.13219258 0.30286252 0.24557897 -0.804489 0.39320773 -0.4011423 -0.7701835 -0.34933653 0.06496381 -0.39758623 -0.07336086 -0.58363944 -0.21076219 -0.25968814 -0.12532151 0.14837374 -0.3610793 -0.06721992 0.1560191 0.45782608 -0.5421129 0.22166134 -0.3719994 -0.30589956 0.3760435 -0.032715663 -0.6879212 -0.15534104 0.6207618 0.3632596 -0.23439772 0.027171016 0.24738325 -0.28490168 -0.26456296
191 0.4689844 0.4297678 -0.2228895 0.12845244 -0.053273942 -0.19632669 -0.51429564 -0.04698448 -0.382688 -0.012317115 -0.59554195 -0.2031625 -0.38027313 -0.5098752 -0.12625772 -0.30269086 -0.46524712 -0.5271054 1.5336714 0.28437322 0.054240774 0.36656982 0.31995362 0.38190743 -0.49925345 0.109553315 -0.036821444 -0.13883254 0.33553213 -0.2475213 0.02332394 -0.2972712 -0.9413254 -0.13421103 -0.40323326 -0.08339071 -0.34657633 0.40072107 0.301367 -0.080737524 0.3776188 -0.31313488 -0.14466828 -0.17187828 0.64046264 -0.52210325 -0.42332938 -0.28983214 -0.05641642 -0.5911972 0.34401318 0.4935539 -0.44403553 0.43278515 0.2348687 -0.24150832 0.84432673 0.8666257 -0.27221385 -0.3578258 0.20614733 -0.16290513 -0.0051803696 0.45337307
164 0.032394443 0.065359436 -0.24482131 -0.09493113 0.17140628 -0.4478677 0.34312525 0.40122023 -0.5671995 0.42786303 0.07495282 -0.68243325 -0.08879936 -0.12191158 -0.024657564 -0.27877715 0.24667095 -0.49241793 1.3187968 1.0001227 0.14988519 0.12599826 0.02705035 0.41515794 0.061013095 -0.18337944 -0.20153534 -0.0638031 0.71602994 -0.48964894 0.13966788 0.21757162 -0.26177192 0.43060046 -0.37701058 0.037925318 0.03700927 0.3357462 -0.17868012 0.15626541 -0.6759821 -0.21227372 0.05193988 -0.045576487 -0.071464926 -0.41378862 -0.018931277 0.038960718 -0.2085992 0.0073728324 0.29409176 0.48099607 0.34713387 0.12684627 0.5565105 -0.3721632 0.090059035 -0.16607639 0.3803418 0.16496287 0.48255014 -0.5632991 0.006876068 -0.17866023
106 0.26704004 -0.07451319 0.13120973 0.48756465 0.1434696 0.2640176 0.24427858 0.62907696 -0.3038688 0.2756602 0.35095504 0.3460866 -0.00043766058 -0.22331129 -0.12499415 -0.11629415 -0.33011898 -0.26523608 1.6173364 0.38962024 -0.16160701 0.55488324 0.42049187 0.1293817 -0.22556536 0.13643418 0.017165178 -0.094607234 0.43945244 -0.01038302 -0.24172054 0.15737346 -0.35153094 -0.042929243 -0.19393368 0.17999867 -0.05006538 0.27684304 -0.21087916 -0.34060457 -0.52953535 -0.08445699 -0.035168517 -0.33322558 0.00031050446 -0.24581106 -0.13976054 0.09947838 0.32845846 -0.048562393 -0.085604236 0.45847586 0.38465577 -0.41815412 0.20895596 -0.022011446 0.024116019 0.010432646 -0.23439224 -0.40568164 0.080813654 1.2182169 -0.3281784 0.7217156
78 0.18299767 -0.10766406 0.055534083 0.53625697 0.10690911 0.2647996 0.1918864 0.5613167 -0.35548815 0.29151598 0.12659492 0.29388884 0.07638563 -0.27726886 -0.16125539 -0.075964354 -0.26816466 -0.36991346 1.5804143 0.4494195 -0.15102711 0.50059474 0.38391674 -0.017665232 -0.32310137 0.05330057 -0.0020383417 -0.07547268 0.51234883 -0.11414544 -0.30119592 0.0528852 -0.36509764 -0.077118754 -0.15378343 0.11017571 -0.05167885 0.26141608 -0.26255056 -0.3280596 -0.5335618 0.01574926 -0.21937436 -0.2498752 -0.074243106 -0.24848284 -0.14461665 0.10276329 0.36966923 -0.010415858 -0.109682344 0.4447309 0.3695801 -0.5124453 0.23616754 0.031976208 0.04241024 0.018488823 -0.15134275 -0.41786727 0.083587565 1.2590098 -0.33840802 0.7163197
88 0.14587899 -0.13282558 0.044645373 0.51049113 0.22862178 0.22635649 0.19350891 0.5871811 -0.27090913 0.30199587 0.21287446 0.342699 -0.049060993 -0.117992006 -0.23291259 -0.07366926 -0.27278063 -0.34803638 1.5842658 0.40368456 -0.13690257 0.49012253 0.41639408 0.037029095 -0.33099964 0.024543276 -0.0085349865 -0.12768097 0.46173465 -0.06831578 -0.29546037 0.15949185 -0.41602257 -0.08356508 -0.17509589 0.06790371 -0.002351366 0.27516866 -0.23842892 -0.34004444 -0.50326294 -0.051636845 -0.30476505 -0.3764624 -0.05004609 -0.27645704 -0.12527077 0.012533304 0.35604092 -0.1492885 -0.017816115 0.4170718 0.37478092 -0.5804286 0.25820014 0.04368234 0.017733144 0.062404986 -0.15640189 -0.3953558 0.033391796 1.2245926 -0.3163844 0.67299104
33 0.2098861 0.10465951 0.5290272 0.2698104 -0.030550472 0.16600594 -0.38775632 -0.14250766 -0.31380612 0.7097857 0.015405401 -0.034491193 -0.15738685 -0.41719905 -0.06181465 -0.15770574 0.20237802 -0.13028383 1.3197234 0.2530346 -0.18877256 0.28664568 0.537153 -0.3882461 -0.06974296 -0.19394718 0.3905655 0.09926856 0.53050035 -0.15000871 -0.023463052 0.32550025 -0.66679156 -0.006180755 -0.25495908 -0.42323437 0.090631805 -0.12686853 0.2869097 -0.0940301 -0.5357261 -0.15151243 -0.026637988 0.020968739 0.36123306 -0.12065786 -0.106703185 0.17023535 0.16646808 0.11620988 0.016724758 -0.15688334 -0.22266503 0.00919203 -0.12498173 -0.07030686 -0.6529526 -0.05683568 0.21235676 -0.1472647 0.10935949 0.53470355 -0.44165304 0.4098439
18 0.29564863 0.13894498 0.4674782 0.22795078 0.032764398 0.24594426 -0.42815086 -0.0794403 -0.18175976 0.5732132 0.023096459 -0.01777595 -0.1586885 -0.24200782 -0.16698325 -0.1266109 0.2899183 -0.19594231 1.4055818 0.29465297 -0.108928636 0.22313593 0.45995086 -0.38448778 -0.019329112 -0.16654639 0.34540564 0.12335879 0.5316534 -0.114616014 -0.18013744 0.19116461 -0.56983465 0.069382794 -0.20769377 -0.37320194 -0.027220348 -0.09382692 0.25054467 -0.20933142 -0.6570772 -0.13277277 -0.021934876 -0.068794265 0.38059583 -0.15926743 -0.13223837 -0.027697716 0.111265615 0.034562696 0.05890976 -0.24031626 -0.14259152 0.0074037015 -0.17968793 -0.13627122 -0.6683338 0.007894365 0.20850101 -0.13355339 0.02190817 0.6768089 -0.42804492 0.27434862
153 -0.03872488 0.11152705 -0.069281206 0.05746393 0.34528223 -0.050533995 0.22518536 0.49782252 -0.40833053 0.3222983 0.09348983 -0.832946 -0.060731325 -0.17781048 0.10696585 -0.12564282 0.148425 -0.27940187 1.3753654 1.0520302 0.03364818 0.15359822 0.28955877 0.32693055 -0.004352642 -0.22578226 -0.29436114 -0.18697608 0.5854908 -0.32700002 0.07193192 0.26066715 -0.24192175 0.59408987 -0.6630669 0.04212197 0.24286665 0.3962826 -0.06450378 0.23621485 -0.5626277 -0.22577196 0.063018315 0.19167492 -0.13949625 -0.35513368 -0.025554726 -0.018481549 -0.3048396 -0.20411426 0.094443895 0.36342686 0.3930395 -0.09135882 0.63028854 -0.2923535 0.07271315 0.0061064884 0.2271487 0.2917775 0.5416753 -0.6830384 0.1987358 -0.13200247
167 -0.52746433 0.52678615 -0.3166251 -0.09694854 0.32352066 0.08560755 -0.07791188 0.11708346 -0.6388417 0.2702273 0.47256818 -0.5312125 0.17840771 0.14166768 -0.72645766 -0.42365786 -0.7087775 -0.3506483 1.2075527 0.39308968 0.2871106 -0.29949072 -0.23195674 -0.104245566 0.14638168 0.13270311 -0.15323398 -0.047578983 0.40972966 -0.15793253 0.28705373 0.72288334 -0.59164655 -0.084475175 -0.041277707 -0.3210239 -0.43733644 -0.14489257 -0.21235201 0.15869424 -0.45972392 0.08222363 -0.30482182 -0.29410306 0.37634698 -0.2015513 -0.31448722 0.2616901 -0.04866492 -0.3681153 -0.50202787 -0.11127829 0.12552212 0.6326896 0.14120533 -0.16255061 0.53609896 0.18064106 0.56426847 -0.79282755 0.27212784 0.1873168 0.2705992 0.80314386
82 0.18553846 -0.113771744 0.11229302 0.45675868 0.071488716 0.27482396 0.26753613 0.546761 -0.2326514 0.37928578 0.12205859 0.3278336 0.028190056 -0.22453627 -0.21887995 -0.0069415397 -0.29723984 -0.25570536 1.5714762 0.54466933 -0.05061273 0.49732995 0.4203088 0.118644334 -0.27885485 0.03587149 -0.028683284 -0.0967939 0.500328 -0.10038048 -0.25361416 0.081188515 -0.39844826 -0.13503075 -0.08560017 0.10040604 0.028620567 0.1867952 -0.3087213 -0.32764485 -0.55830044 0.06655401 -0.22960024 -0.31578404 -0.04837308 -0.28337967 -0.16923425 -0.011454483 0.41297993 -0.11821261 -0.06884021 0.37543297 0.44909015 -0.4885991 0.23576875 -0.022355702 0.02825009 0.06091591 -0.18222469 -0.5459556 -0.043271136 1.1349182 -0.36218935 0.65847564
27 0.1400279 0.4937509 -0.13257073 0.07440283 0.11634408 -0.31027547 0.42675963 0.19343817 0.1510852 0.25353506 0.077070236 -0.26826832 0.03532827 -0.4287608 -0.19521356 -0.13959987 -0.50324184 -0.13927382 1.5332736 0.1650066 -0.23869658 0.18492977 0.08033155 0.05320901 0.48358127 0.18489024 -0.2250345 0.045543533 -0.00026006848 -0.6606835 0.11294728 0.11880206 -0.48125693 -0.17271973 -0.52790076 -0.6346354 -0.276393 0.37749252 -0.7068512 0.13168699 0.30059987 -0.24996969 -0.4507509 0.41156942 -0.66556513 -0.92156094 -0.4123869 -0.023923295 0.1538147 -0.4511333 -0.082993515 0.61401534 -0.21481226 -0.061376803 -0.53856075 0.23900041 -0.36316186 0.114009924 0.21435471 -0.91378444 1.0248855 -0.35518867 -0.486277 0.54304343
133 0.19798294 0.3311749 0.34678102 0.16801365 -0.61497664 0.006836294 0.2376652 0.30913088 0.19932108 0.1388727 0.51708704 -0.39237204 -0.12837906 0.0984408 -0.061132193 -0.13074617 -0.4111274 0.26810223 1.2701725 0.1281909 -0.09206639 -0.41102588 0.027467143 0.26627302 -0.26098755 0.13448392 -0.11606666 0.6032096 1.3471226 0.0051786057 0.16172159 0.5229062 -0.43525928 0.16269034 -0.24103768 -0.471846 -0.2314355 0.11579563 -0.0011485585 -0.028824035 -0.12895009 -0.24570438 -0.57868695 0.7114753 0.0856593 -0.7990161 -0.81266844 0.15396903 0.3690882 -0.6014827 0.016707191 0.4283683 -0.1913681 0.15729469 0.2522034 -0.065036006 0.87844026 0.08947786 0.26171696 0.25181797 0.31896323 0.50897324 -0.46222636 -0.16420189
79 0.2416969 -0.10590174 0.03421251 0.5185751 0.15980566 0.3067994 0.29889247 0.6556834 -0.39117405 0.3494487 0.22459956 0.23816271 0.017458493 -0.29469815 -0.18448406 -0.01776846 -0.38621226 -0.3098606 1.5366697 0.438973 -0.15178491 0.5203558 0.3096023 0.07348549 -0.30980894 0.10402354 -0.025332471 -0.09479026 0.4401549 -0.12374983 -0.27992934 0.19591254 -0.324575 -0.112624444 -0.108651124 0.1088802 -0.009320629 0.3253258 -0.13536763 -0.36463153 -0.55341434 -0.016022917 -0.21362448 -0.35285354 0.002285533 -0.23354587 -0.1505927 0.011672903 0.3440657 -0.15824051 -0.08467566 0.4662066 0.37681574 -0.54861426 0.1586604 -0.038358655 0.03814491 0.058659963 -0.17385578 -0.41232517 0.08486262 1.2154398 -0.39143255 0.69319844
147 0.08037426 0.21014366 0.2787883 0.28504738 -0.77716035 -0.0048329015 0.23549877 0.23309971 0.107558124 0.22287926 0.2769807 -0.35226434 -0.19381963 0.097921 -0.13172738 -0.1376826 -0.3769956 0.30400982 1.3407859 0.19864503 -0.1688663 -0.3836155 -0.0564133 0.19095634 -0.14974622 0.3406789 -0.24753356 0.50906897 1.324543 -0.17235526 0.27742955 0.6543277 -0.28401375 0.27943313 -0.38192898 -0.61053604 -0.20700417 0.030340165 -0.104337245 -0.16879295 0.04569273 -0.25223112 -0.53842163 0.63146335 0.048543163 -0.76194954 -0.51031566 0.27647942 0.1041291 -0.5400777 0.02487605 0.37245402 -0.4874734 -0.02029841 0.28783783 -0.13480593 0.8572851 0.102305874 0.17884168 0.12595244 0.050304465 0.5514733 -0.3304247 -0.12501839
198 0.40027547 0.51533544 -0.2899256 0.06477221 -0.1306451 -0.042308096 -0.5347097 -0.06610874 -0.45287782 0.0029071937 -0.44151375 -0.3232581 -0.28431192 -0.5746025 -0.1364501 -0.20136338 -0.3592909 -0.5257022 1.5167828 0.28399134 0.019543095 0.50097746 0.44121113 0.45507798 -0.4888471 0.1665758 -0.13674705 -0.120719366 0.33325428 -0.29703724 0.1291704 -0.3373312 -0.8666998 -0.16019012 -0.21716915 -0.09634518 -0.2354305 0.47418785 0.23715438 -0.06299298 0.34228957 -0.27825913 -0.13838811 -0.06115331 0.69162625 -0.5923438 -0.40350154 -0.33396855 -0.009232863 -0.6182537 0.41836038 0.42432827 -0.40068206 0.49202558 0.20565033 -0.17800617 0.8228154 0.87336576 -0.22822225 -0.3155313 0.15849923 -0.15221718 0.00042825434 0.55154914
29 0.07208953 0.49527916 0.3291672 0.032969642 -0.1016383 -0.17257787 -0.25792375 -0.22017114 0.06552558 0.87626314 0.17112723 -0.19437109 -0.25468987 -0.35867736 0.26043203 -0.26157343 -0.35085985 -0.17619614 1.0661122 0.4517285 -0.18921447 0.23443909 0.09334233 -0.05322636 0.27800864 -0.27228788 0.372141 0.3796405 0.308497 -0.29883724 0.16114046 0.20477837 -0.81316435 0.0511812 -0.5082742 -0.4310073 -0.08488495 -0.045653082 0.37325346 0.0059128786 -0.42653066 -0.1694204 -0.29372594 0.34333667 0.01676026 -0.4883808 -0.011105734 0.11023625 0.021597227 -0.085249536 -0.04245963 0.089863285 -0.5369051 0.20728637 -0.19385006 0.20106713 -0.9695298 0.33004582 0.38043404 -0.20052671 0.33629975 0.021917066 -0.46398357 0.762392
20 0.037421316 0.4869273 0.38735288 -0.054809317 -0.061425693 -0.09625629 -0.28039905 -0.12392429 -0.034368914 0.7440068 0.09804324 -0.2093156 -0.34239116 -0.40401974 0.3264696 -0.19237414 -0.2746492 -0.2049442 1.1064094 0.503059 -0.22656181 0.1720946 0.033253264 -0.0551972 0.21277958 -0.19007327 0.3908364 0.36277896 0.22463359 -0.32908848 0.27389422 0.26557165 -0.74707663 0.13310906 -0.43016523 -0.5606161 -0.14014421 -0.093572035 0.406769 0.044458367 -0.4322858 -0.1693865 -0.18868707 0.26725656 0.06155748 -0.582503 -0.025258001 0.10955158 0.08875559 -0.110324144 0.0032428678 0.10484017 -0.5505693 0.2193169 -0.31264997 0.2200901 -0.97505826 0.26173177 0.35441107 -0.10153535 0.4059405 0.037851896 -0.47332704 0.75845724
124 0.27939028 0.13410605 0.012842019 0.39457288 -0.30703357 -0.22786495 0.100425504 0.39513564 -0.47533056 0.82211304 0.5393189 -0.3177825 0.36118758 -0.033380534 0.22381479 -0.2649667 -0.08533267 -0.48644766 1.363761 0.6158879 -0.14389391 -0.13776344 0.09719669 0.27767763 0.011446207 0.29310215 0.018634433 -0.17587015 0.44751182 -0.24940199 0.3728348 0.024674037 -0.4753186 0.3982008 -0.20960082 -0.3653055 0.03205786 0.5875801 -0.15680428 -0.100171775 0.29980162 -0.011554632 -0.4063096 0.2075787 0.054505844 -0.66817385 0.09586707 -0.29227564 -0.05970469 -0.52264917 0.070189066 -0.0071386886 -1.3195602 -0.22251858 -0.55340695 -0.5662773 0.6635658 -0.1728059 0.071518175 -0.46257177 -0.3610089 0.3719728 0.7934519 0.36106804
40 0.103608534 0.45303822 -0.13854946 0.1913436 0.05700936 -0.26312786 0.4609477 0.21968721 0.11403223 0.31945935 0.21279848 -0.33218378 0.034905706 -0.44236216 -0.10210263 -0.11328707 -0.37486574 -0.0903381 1.5676788 0.1232664 -0.3699892 0.18540971 0.06108672 0.10596899 0.4603999 0.13879159 -0.33192965 0.03204648 -0.059268408 -0.70981556 0.10957379 0.073009595 -0.45241296 -0.18299977 -0.4080499 -0.6920681 -0.25600752 0.3780681 -0.6473569 0.28593042 0.31636482 -0.2987177 -0.37579328 0.30981866 -0.5569133 -0.870184 -0.51168513 0.0385627 0.16707103 -0.49455208 -0.08914286 0.6259163 -0.21264495 -0.008292569 -0.53601134 0.27534547 -0.37552598 0.1822666 0.22977282 -0.9196786 0.96166915 -0.385121 -0.5276499 0.5535279
188 -0.49440312 0.629159 -0.22751981 -0.06400442 0.34307733 0.023188554 -0.12851821 0.09074994 -0.7179142 0.31831047 0.42402 -0.5070799 0.09699914 0.13764349 -0.7049069 -0.48280895 -0.6356548 -0.3398649 1.1964074 0.38274252 0.2864301 -0.38363302 -0.15766604 -0.06959959 0.108252004 0.076045714 -0.100718535 -0.004318002 0.41777587 -0.21383248 0.3020158 0.7200881 -0.5034706 -0.14643851 -0.012058931 -0.41810733 -0.5242103 -0.16119266 -0.24114235 0.16468897 -0.49464843 0.07471607 -0.19126913 -0.22156155 0.29283056 -0.25932443 -0.3038853 0.16960856 -0.018324431 -0.3786777 -0.5737614 -0.13311605 0.26777387 0.6448642 0.09887716 -0.13991699 0.5771079 0.13234861 0.42764056 -0.74488086 0.2972996 0.1940826 0.36410445 0.8263216
213 0.40153286 0.45957115 -0.18882564 -0.035118423 -0.16591586 -0.082845695 -0.4947115 -0.06276785 -0.44536608 0.043983392 -0.48838535 -0.24813415 -0.19982794 -0.51633036 -0.12583584 -0.19763668 -0.32118458 -0.48921594 1.5079271 0.32339624 0.028766992 0.4572715 0.40939215 0.41946763 -0.484399 0.0862585 -0.056715574 -0.17335595 0.36215794 -0.26855972 0.013982419 -0.36563265 -0.80295664 -0.23945712 -0.31929162 -0.19927266 -0.33322814 0.42902532 0.22122383 -0.03831542 0.32766557 -0.31913787 -0.098583944 -0.1602175 0.7541695 -0.68613416 -0.445149 -0.35634366 -0.06797774 -0.59007376 0.35465574 0.4934514 -0.40708706 0.5114338 0.2664558 -0.15209673 0.84177625 0.85129774 -0.28976232 -0.31421757 0.20592478 -0.13366687 0.0073292754 0.53422713
126 0.23429859 0.24920164 0.18331277 0.30664 -0.26756075 -0.1884925 0.11858678 0.28757846 -0.420874 0.7843423 0.53453 -0.35036248 0.36778423 -0.01730123 0.2488216 -0.15620165 0.009057324 -0.37058312 1.339343 0.69753444 -0.04354037 -0.18748468 0.1805665 0.19201925 0.062446747 0.17516293 0.0005704813 -0.2327867 0.47594872 -0.20156915 0.3588767 0.06530282 -0.45893714 0.27642286 -0.21305469 -0.39546636 0.02611847 0.5723823 -0.2338222 -0.1188138 0.2812061 -0.077771746 -0.34838083 0.2516441 0.023251208 -0.8081901 0.059790283 -0.28626603 -0.069730856 -0.5045176 0.09044461 0.036834624 -1.3073602 -0.27443913 -0.44787621 -0.46816492 0.7381748 -0.23509654 0.050563708 -0.47322947 -0.35447422 0.4327289 0.8879493 0.39599833
223 -0.02027757 0.05520291 -0.13336238 0.14280549 0.16886298 -0.2243433 0.2950137 0.45686632 -0.47292954 0.37829134 0.08245003 -0.8026239 0.19854337 -0.26996794 0.028421853 -0.13654228 0.18661879 -0.43441176 1.3775766 0.93873906 0.10753054 0.1697768 0.24947537 0.3407205 0.13413873 -0.16881843 -0.25539738 -0.12157431 0.76471835 -0.32041082 0.06649752 0.21306396 -0.34096068 0.43449232 -0.67651945 0.1404532 0.22357737 0.3332971 -0.07647267 0.1337369 -0.5122056 -0.22814618 0.03766947 0.14827226 -0.13807361 -0.23554285 -0.025082896 -0.0086388765 -0.2688615 -0.08092615 0.09179511 0.4208997 0.33551478 -0.020305116 0.68396866 -0.2840358 0.057269238 0.029475346 0.37665328 0.25037548 0.56535095 -0.6750998 0.1440944 -0.18718052
139 0.24999936 0.30342576 0.19369061 0.26037395 -0.5381314 0.024493357 0.22890617 0.22333643 0.24193658 0.1217606 0.44871953 -0.45779142 -0.21328536 0.11352519 -0.04934235 -0.15812853 -0.39053473 0.2920056 1.2509887 0.11463401 -0.035201956 -0.43264812 -0.022243785 0.26255473 -0.2355828 0.1873622 -0.02232656 0.6272671 1.3266172 0.047773346 0.20218985 0.5064959 -0.5040962 0.2705163 -0.20799749 -0.40043035 -0.15527365 0.25033444 -0.09328788 -0.15388013 -0.0984121 -0.20851909 -0.67211133 0.651917 0.052057322 -0.8343972 -0.84609073 0.15056883 0.33037084 -0.54607946 0.002638282 0.34576595 -0.28748468 0.098244764 0.24325553 -0.17822164 0.8971693 0.056092728 0.32673395 0.31893036 0.31821966 0.50422865 -0.49360272 -0.06388122
181 0.035747606 0.88981575 -0.5031194 0.20006223 0.23111027 1.0781565 -0.06341004 0.3574169 -0.21214561 0.7467545 0.024969231 0.26308686 0.37061906 -0.10689103 0.40744534 -0.32381195 -0.54157007 -0.009535234 1.5928711 0.65822536 -0.2769816 -0.13683802 0.038769875 -0.033195645 0.055416886 0.04429544 0.28954807 0.22047369 -0.2766551 -0.07552616 0.21367492 0.19091855 -0.6846602 -0.31357905 -0.5112348 -0.9497154 -0.04785422 0.47795317 -0.27917898 -0.20288138 0.009974637 0.01583948 -0.030659977 0.2107614 0.012683721 -0.2650204 -0.14887671 0.31063473 0.56989276 -0.21020651 0.10572716 0.35317144 -0.009210611 0.2044957 0.5419849 -0.091447555 0.40387425 0.2588531 0.18318054 -0.09708935 0.06743698 -0.004811132 0.12106175 -0.57571065
154 -0.011746465 0.44780922 -0.4593582 -0.13198288 0.1227027 0.9506025 -0.16730464 0.39473814 -7.0306654e-05 0.8008822 0.013208052 -0.42612433 0.36406732 -0.07449874 0.37117597 -0.52339464 -0.30292222 -0.35761604 1.3468086 0.8545083 0.07920274 0.15529598 0.0082689645 0.23698714 -0.040442012 0.1443712 -0.15911902 0.05437773 -0.09698292 -0.02817019 0.100032434 0.30479392 -0.7119158 0.0056909923 -0.6771074 -0.8594375 0.10855739 0.49062765 -0.21684551 0.16901627 -0.1843458 -0.19389862 -0.03505133 0.30800697 -0.0878381 -0.11906686 -0.35347536 -0.10735044 0.16568531 -0.3225849 -0.19993857 0.34407327 0.18315262 -0.18987043 0.81020826 -0.29435068 -0.026322203 0.09319085 -0.17815854 0.19212858 0.3877154 -0.06773905 0.2489344 -0.55300844
227 0.22486508 0.10537617 -0.09958687 0.46608368 0.112556756 0.055874795 0.0939155 0.25025287 -0.15673116 0.5103104 -0.011926795 -0.32044488 0.2146317 0.11010952 -0.002957422 -0.28119725 0.029329214 0.12505981 1.2623823 0.63973844 0.57467073 0.17144509 -0.23748016 0.2278242 -0.012359089 0.09740687 0.02591381 -0.7776764 0.148887 -1.1480659 0.27260497 0.6226437 -0.41492563 -0.10511063 -1.1012821 0.23482731 -0.49683353 0.13661236 -0.36146095 -0.009058446 0.31646842 -0.29669648 -0.34447145 0.57004666 0.47684526 -0.5450138 -0.3107775 0.1258802 1.1733699 -0.5126711 0.17464194 0.20411718 0.18050036 0.61247385 -0.2901968 -0.43947795 -0.011209291 0.604391 0.49409977 0.3241664 0.11058154 0.6547358 0.05475233 0.4290606
26 -0.017458705 0.0034978073 0.374063 0.3278713 -0.089702986 0.36405087 -0.10097685 0.19806685 -0.3820857 0.45753008 0.018825423 0.12143522 -0.057175763 -0.19816217 0.006025784 -0.11148638 0.111231096 0.009843773 1.6150403 0.09085537 0.102674656 0.253927 0.4812028 -0.29990986 -0.020883959 -0.18234496 0.2506687 0.15173613 0.5804786 -0.2867143 -0.5758058 0.07189198 -0.66654533 -0.22037286 0.038003065 -0.066585585 0.041472673 0.1004573 0.29953328 0.023781614 -0.50481904 -0.27292758 0.010168722 -0.114783905 0.12022797 -0.041999925 -0.049729835 -0.06649553 -0.018223707 -0.08804621 -0.028303869 0.053775106 0.21353038 -0.2582557 -0.2723027 -0.18585072 -0.5267969 -0.018859955 0.10108788 -0.26803166 -0.20566513 0.8913684 -0.42221075 0.32197344
180 0.38123494 0.48350078 -0.2699785 -0.07002999 -0.23816636 -0.111118734 -0.6052325 -0.105382554 -0.44835934 -0.06872477 -0.44548658 -0.25544944 -0.23502731 -0.50157386 -0.09196309 -0.21971412 -0.4145787 -0.48048776 1.6194506 0.31955504 0.0145446 0.5148755 0.4334455 0.3698281 -0.47578612 0.15146995 -0.06236926 -0.24224208 0.33336905 -0.28250566 0.083257824 -0.32902578 -0.7907867 -0.13984102 -0.28793418 -0.08167768 -0.24685764 0.3983803 0.15667105 -0.09058821 0.34847435 -0.30663538 -0.13693184 -0.1038984 0.6458896 -0.60993654 -0.45801666 -0.2899129 -0.05911479 -0.5556366 0.38524252 0.44397745 -0.47661018 0.5021351 0.26752046 -0.18980712 0.7969079 0.81039286 -0.27213725 -0.3121025 0.15875779 -0.15493552 0.026411949 0.5282562
127 0.0045016753 0.13782705 0.28188264 0.3075988 -0.6278079 -0.008186789 0.30955023 0.3573516 0.19881289 0.20410776 0.28190818 -0.3834796 -0.22921555 0.14803892 -0.09606595 -0.074034855 -0.29181042 0.19175725 1.2278056 0.31093308 -0.17780253 -0.5191636 0.11516802 0.1401621 -0.15907705 0.25903422 -0.069159776 0.55769783 1.2274412 -0.13015991 0.2669321 0.656618 -0.35963345 0.22924452 -0.3112556 -0.63039744 -0.20491603 0.04069789 -0.10391182 -0.16347758 -0.02589978 -0.27683312 -0.33116087 0.62776357 -0.021988627 -0.8755186 -0.603313 0.22680925 0.12700641 -0.73101944 0.09004728 0.42874616 -0.5805148 -0.030876292 0.26939642 -0.12123774 0.8788295 0.13014615 0.13513465 0.23416497 0.03166281 0.54363465 -0.20247245 0.04986699
44 0.19201651 0.40785116 -0.035984963 0.12098494 0.048049144 -0.2567242 0.49640822 0.18121539 0.10806469 0.37847674 0.10549435 -0.33912522 0.01439775 -0.5314685 -0.052526165 -0.15417546 -0.43216962 -0.04600762 1.4666127 0.20001322 -0.3085558 0.061385717 0.119627364 0.21380062 0.47368327 0.09053336 -0.15798658 0.11512567 -0.04199262 -0.7871333 0.11656793 0.13412155 -0.5052927 -0.3159015 -0.5027315 -0.6392124 -0.118449844 0.2850448 -0.5731379 0.21300921 0.29610804 -0.22089991 -0.51090777 0.25437498 -0.58050585 -0.8980418 -0.4982822 0.042919133 0.038245436 -0.39178553 -0.11962818 0.4869047 -0.27818567 0.1208889 -0.4333807 0.29761487 -0.4677128 0.15286064 0.16149977 -0.8968627 1.0008113 -0.32494262 -0.50214255 0.58587384
108 0.24161416 0.2079082 0.21068706 0.34354255 -0.17899619 -0.2685724 0.21354148 0.4849813 -0.33356488 0.8765831 0.45390353 -0.3786921 0.4107209 0.008988572 0.2788378 -0.09077511 0.011311397 -0.38281092 1.3501929 0.60488254 -0.12279024 -0.2070616 0.106108986 0.28679818 -0.0061782165 0.13605359 0.019484242 -0.12900464 0.55742824 -0.16680735 0.39423466 0.118628174 -0.452899 0.26129815 -0.12763983 -0.41233045 -0.048693977 0.46506175 -0.1400627 -0.1653335 0.38408452 0.09502019 -0.281455 0.24341224 0.065531425 -0.74479395 0.016688485 -0.19812618 -0.0012460365 -0.58016133 0.11520848 -0.029235156 -1.3024738 -0.2474037 -0.41953212 -0.50302935 0.73646975 -0.27881697 0.007836591 -0.43038708 -0.22038114 0.4381622 0.8033431 0.35230005
195 0.0561147 0.078343585 -0.19444728 0.052606177 0.30346787 -0.46883532 0.3065918 0.26214823 -0.4702776 0.45018706 0.22150317 -0.765305 -0.15127476 -0.21458654 -0.11399529 -0.083013974 0.25030482 -0.42910257 1.3889053 1.0040926 0.10930468 0.08818406 -0.08718556 0.36410886 0.15450087 0.020065073 -0.23918727 0.083813764 0.6874936 -0.34849414 0.102765135 0.24397348 -0.37289962 0.2647299 -0.45593107 0.1835471 -0.012098604 0.30186197 -0.19419102 0.16240664 -0.6440851 0.0064737527 0.047099315 -0.0564783 -0.04939333 -0.35702232 0.11442293 0.02782697 -0.23293719 -0.076058865 0.2756092 0.49630764 0.41230226 0.1463554 0.5403663 -0.45650607 0.11365105 -0.11519444 0.33347043 0.15388608 0.427145 -0.5991151 0.06567403 -0.21818729
19 0.12068605 0.44316682 -0.087665565 0.09419778 0.1052432 -0.25785506 0.45765367 0.22566664 0.17184973 0.2693882 0.15504763 -0.3165804 -0.05686346 -0.4502467 -0.14898323 -0.09496102 -0.48143053 -0.1309047 1.564426 0.09820473 -0.33156452 0.12939966 0.05436479 0.14046435 0.4495466 0.14007106 -0.20177129 0.06982461 -0.058890197 -0.68453413 0.064870894 0.13816199 -0.36947158 -0.23140714 -0.5253596 -0.655166 -0.28195187 0.42817014 -0.6674953 0.18737243 0.23410751 -0.26176202 -0.36604753 0.26453757 -0.5817022 -0.95497656 -0.32269 -0.0011180917 0.23122956 -0.6465633 -0.14623612 0.54990965 -0.17820643 -0.06922632 -0.57603127 0.16584858 -0.31935275 0.16899087 0.13196146 -0.90281504 1.0563183 -0.40697092 -0.5100301 0.52351284
151 -0.026143689 0.43496743 -0.44971287 -0.04121535 0.20795652 0.94848317 -0.127348 0.42249665 0.08707977 0.63977116 0.030670095 -0.3868706 0.32329237 -0.076228246 0.4291054 -0.5477692 -0.26075095 -0.27771512 1.4476969 0.8446787 0.07469398 0.18954541 -0.016606465 0.24721426 -0.014814434 0.14823058 -0.13624848 0.050174788 -0.111888684 -0.03830652 0.18734695 0.37462208 -0.84312075 0.12624113 -0.67793715 -0.8029554 0.08455225 0.5329726 -0.27851728 0.22297128 -0.1256955 -0.17236064 0.061163526 0.3600385 -0.061106473 -0.048761934 -0.38849318 -0.10892656 0.099324 -0.11537619 -0.1612848 0.32221252 0.10237888 -0.18974748 0.80895954 -0.2512316 0.015187973 0.07923319 -0.1535558 0.15858608 0.3269002 -0.08592361 0.2204957 -0.5224258
41 0.12831335 0.0049549467 0.43638054 0.24601746 0.19107516 0.27266663 -0.3774697 -0.02670833 -0.21151386 0.66217667 0.024950234 0.039390676 -0.1288787 -0.3283639 -0.19806875 -0.1332852 0.20577885 -0.14363621 1.3795797 0.19061853 -0.24077624 0.37135488 0.54672647 -0.28022063 -0.026015667 -0.25516164 0.31978503 0.22626325 0.55857533 -0.03729529 -0.04280271 0.2695048 -0.5762048 0.032801744 -0.16813552 -0.28334606 -0.008419017 0.06396113 0.3422497 -0.23354118 -0.68106556 -0.23589286 -0.08893688 0.003603381 0.423875 -0.12242592 -0.07024318 -0.03656851 0.17027445 -0.1452264 0.041498154 -0.16055976 -0.008209712 -0.03263366 -0.27200294 -0.12279587 -0.6081595 -0.0040989183 0.22799882 -0.14468953 -0.024703976 0.663619 -0.34930366 0.280093
156 -0.76494545 0.475359 -0.07872842 -0.015944844 0.3740256 0.38913372 -0.089955576 0.16038428 -0.5796913 0.375965 0.32202575 -0.41691148 0.278392 0.30674285 -0.47094375 -0.5594964 -0.72990173 -0.3374524 1.3103151 0.123430826 0.3998723 -0.4633434 -0.11741535 0.033844348 0.0037069737 -0.11088976 0.004700073 -0.37736773 0.5959456 -0.17954037 0.35191447 0.43795186 -0.45667967 0.24907371 -0.22952193 -0.5850968 -0.13615002 -0.15428424 -0.06732183 -0.026517615 -0.29414064 -0.07167546 -0.006109788 -0.20215298 0.1708088 -0.20105267 -0.6036702 0.21271756 -0.017032307 -0.44909742 -0.56453574 -0.28537038 0.14234182 0.6886803 0.022831943 -0.0016227618 0.6336331 0.4508898 0.42291957 -0.9776893 0.6243039 0.33676466 0.26577038 0.93794477
15 0.12007013 0.20881136 0.122252606 0.38471428 -0.71190506 0.025487171 0.26559046 0.30388507 0.13283707 0.35731593 0.4515505 -0.36903992 -0.22283076 0.050833713 -0.30306524 -0.12512775 -0.36950597 0.37371352 1.2078366 0.1840193 -0.28341722 -0.32442114 -0.062324 0.28198808 -0.32870662 0.20490105 -0.13374075 0.59058404 1.3284804 -0.21976283 0.36288103 0.57777643 -0.428802 0.47155586 -0.36456785 -0.6365961 -0.296944 0.050236516 -0.06658367 -0.04299372 0.18800838 -0.20348322 -0.37465346 0.61997145 -0.060109258 -0.74351794 -0.3720122 0.1488073 0.12330394 -0.5956145 0.07732984 0.40313882 -0.38352823 0.11244477 0.34778967 -0.11732779 0.8012391 0.042613994 0.17414732 0.08592905 0.03975314 0.6061524 -0.38557726 -0.080174424
93 0.1706082 0.08978937 0.12596916 0.34962118 0.16069241 0.24757165 0.10543095 0.5928653 -0.27958062 0.30136818 0.26774782 0.27992144 -0.07348926 -0.16829796 -0.11726782 -0.087526955 -0.24811094 -0.25177115 1.7097713 0.35125473 -0.051962484 0.44881773 0.44653967 -0.11472829 -0.30715582 0.18847829 -0.029418116 -0.066116355 0.5654014 -0.14386721 -0.24389979 0.059854127 -0.3689796 -0.028229406 0.01205676 0.13040453 0.07705395 0.2770861 -0.18171468 -0.23774818 -0.45329115 -0.14143714 -0.14844507 -0.27799425 -0.036016837 -0.2224838 0.045181546 0.0747056 0.35937807 0.016784465 -0.10863214 0.45962924 0.4729635 -0.49749616 0.07590907 -0.07396385 -0.05845855 0.07486677 -0.25376582 -0.31739286 0.05507273 1.2676932 -0.2633062 0.66676706
199 0.4475939 0.49523968 -0.23833008 -0.02137246 -0.09536132 -0.2026738 -0.52371603 -0.02217199 -0.434009 0.05112263 -0.46363696 -0.23080294 -0.26006988 -0.48238555 -0.099105194 -0.34185928 -0.374487 -0.4871542 1.5619875 0.28680164 -0.0039737937 0.48308817 0.42518744 0.49696937 -0.54224616 0.05393118 -0.051956486 -0.17323035 0.33575225 -0.20081313 0.107560456 -0.26763934 -0.79755884 -0.18484715 -0.22090773 -0.09797907 -0.32883847 0.42736647 0.17434889 -0.16318727 0.3865241 -0.18509594 -0.06014409 0.015826212 0.71105057 -0.59240764 -0.46253133 -0.37523246 -0.058050588 -0.5636984 0.36439204 0.45689625 -0.4146627 0.554643 0.24090411 -0.2780287 0.79053384 0.79256624 -0.3467906 -0.3414758 0.19447112 -0.1708874 -0.0761352 0.53416014
184 0.067440264 0.91637814 -0.5098372 0.22855194 0.26584095 1.0525614 -0.045773882 0.42755187 -0.28951824 0.5928932 0.15505655 0.26125693 0.3782426 -0.020683305 0.4608722 -0.45437357 -0.5441245 -0.0032972938 1.5491344 0.6319328 -0.31650996 -0.12022519 0.0473163 -0.060128964 0.108278304 0.0035941056 0.27871996 0.2456024 -0.33397847 -0.1227203 0.2373387 0.18387802 -0.77493894 -0.263607 -0.50066507 -0.9291412 0.031063784 0.5627642 -0.264014 -0.2747616 -0.010401981 -0.059498962 -0.057356115 0.22444442 0.056661528 -0.23331979 -0.1988837 0.25429064 0.4972606 -0.26672834 0.053744517 0.3875859 -0.019163467 0.23261914 0.5370937 -0.111270435 0.342762 0.26112896 0.18293716 -0.03463259 0.00026661664 -0.016807107 0.04797605 -0.54602975
30 0.16992305 0.48758227 0.35391206 0.002801386 0.0002982789 -0.08736574 -0.3679678 -0.04948944 -0.18760695 0.86354494 0.083874464 -0.18828379 -0.1951655 -0.36601555 0.42150384 -0.12140525 -0.120653845 -0.13571922 1.060558 0.49574062 -0.17792115 0.24536534 -0.03383432 -0.05305219 0.24221772 -0.22100118 0.2599595 0.44006371 0.35561875 -0.3115523 0.30795422 0.26224104 -0.74154633 0.043476496 -0.42414963 -0.5237344 -0.09231006 -0.13620439 0.5706621 0.019170089 -0.42839047 -0.17361176 -0.29836112 0.26356196 0.12828545 -0.5401013 -0.09920624 0.13209794 -0.035915885 -0.08870462 -0.07138181 0.040750545 -0.43492284 0.20422532 -0.2915022 0.24699089 -0.881137 0.38101 0.3701843 -0.15740143 0.27232388 0.12235596 -0.4706338 0.6915306
43 0.14850429 0.37746862 -0.027789947 0.1288792 0.18573846 -0.22258624 0.4754023 0.26831865 0.10844455 0.22662278 0.1669016 -0.3260112 -0.023256585 -0.4178692 -0.23912664 -0.13271086 -0.49266753 -0.14236605 1.5376616 0.16861746 -0.25768617 0.19222926 0.021187035 0.19876099 0.44299608 0.20783421 -0.32990116 0.07533953 -0.15044497 -0.64637893 0.054381255 0.13866551 -0.49319965 -0.1375106 -0.42546833 -0.7096792 -0.20552878 0.43678772 -0.63102555 0.15324922 0.3013659 -0.34506753 -0.42661574 0.23925795 -0.675763 -0.9085109 -0.45655596 0.027618926 0.21372713 -0.5537442 -0.07170115 0.6427769 -0.28881997 0.07082221 -0.5434391 0.20458889 -0.3938715 0.13918336 0.2685524 -0.8363723 0.95901537 -0.3842713 -0.5475327 0.5697562
60 0.21162488 0.05681086 0.28013563 0.38222077 -0.15381561 -0.2542622 -0.030526007 0.33489975 -0.19337645 0.32923618 0.018075703 -0.109757856 0.17486954 0.30401406 0.06473395 -0.1553885 -0.21670221 -0.08801988 1.2360421 0.78791106 -0.048959777 0.17127465 -0.1082746 0.2191023 0.14310054 -0.0223594 0.18736556 -0.30073234 -0.29545105 -0.7785739 0.40970185 0.4361507 -0.3992042 -0.09888794 -0.89464474 -0.10775187 -0.14042354 0.07333032 -0.3925398 0.39113155 0.44135356 -0.4832214 -0.2011552 0.5640499 0.50646794 -0.5485789 -0.28016785 -0.071096316 0.55823314 -0.49844113 0.42643005 -0.0134672355 0.5188459 0.25325593 0.1229925 -1.0121076 0.2330894 0.81552696 1.0655062 0.0133207645 0.5497165 0.9622444 0.014032537 0.5019692
25 0.08094494 0.12206698 0.34759313 0.23170863 0.050497305 0.17648801 -0.33276835 0.016418299 -0.10695661 0.56218725 0.077586286 -0.025712026 -0.14449048 -0.36962718 -0.26344368 -0.17354766 0.20284607 -0.15573175 1.4082599 0.22925419 -0.21315245 0.30132687 0.50990593 -0.35801366 -0.18897697 -0.16676943 0.29447997 0.1373333 0.51153547 -0.019914461 -0.13087453 0.30646524 -0.6123869 0.07307389 -0.2580734 -0.34804243 -0.033531755 0.039971232 0.35010916 -0.26866025 -0.5996678 -0.20445351 -0.07226417 -0.15080296 0.4244559 -0.001481474 -0.035738405 -0.06296954 0.20166142 0.0026535317 0.08586304 -0.16564915 -0.13500537 -0.0991414 -0.32625487 -0.18945085 -0.6694741 0.005837984 0.31967762 -0.13518456 0.025515763 0.6964523 -0.44960177 0.21899523
157 0.10788742 0.93020195 -0.47623706 0.072588906 0.21374707 1.0178808 -0.013550689 0.45433563 -0.26590624 0.67665285 -0.003020636 0.33527127 0.2883417 -0.110663034 0.40383253 -0.47478145 -0.539123 0.0047195875 1.5828327 0.68889266 -0.2231132 -0.19586994 0.0031442868 -0.012672591 0.11391524 0.016198192 0.27329212 0.22961774 -0.32470667 -0.104838 0.19464214 0.15684497 -0.6973322 -0.2396764 -0.4651466 -0.9115128 -0.04267677 0.55612975 -0.29830196 -0.24211483 -0.0617545 -0.05608868 -0.059358608 0.23229867 -0.0152641665 -0.24567322 -0.14107044 0.24576159 0.54689544 -0.30748516 0.047980838 0.30164275 0.0085392855 0.23135662 0.534084 -0.13122994 0.3548508 0.24845721 0.18162335 -0.049013983 0.005802677 -0.0022815794 0.080461726 -0.5975427
32 0.08448295 0.49678707 0.45747647 -0.093243554 -0.05981871 0.035685096 -0.26358944 -0.09317586 -0.07218642 0.8633602 0.095527574 -0.08476036 -0.12492511 -0.38057253 0.4365782 -0.11239035 -0.21897666 -0.15780881 1.0933769 0.4809911 -0.15878268 0.27186835 -0.060060423 -0.087474234 0.20539287 -0.15570885 0.27023405 0.43886486 0.41887242 -0.30582836 0.260287 0.20710737 -0.7596535 0.046148982 -0.5589492 -0.4011686 -0.14296569 -0.14080776 0.51737964 0.012920906 -0.4324369 -0.14200984 -0.34361395 0.31645423 0.16759504 -0.44901922 0.060591515 0.17757869 -0.05544776 0.028961482 0.010840626 0.075993575 -0.5267718 0.25099134 -0.2658306 0.18391718 -0.8310043 0.30975902 0.33066985 -0.18119492 0.4253824 0.09465731 -0.4562399 0.78565663
210 0.101924926 0.86315334 -0.5827116 0.105614975 0.16138665 0.97741306 -0.1024703 0.48882726 -0.21319081 0.6897462 0.10265757 0.26422015 0.36439374 0.049174663 0.37960613 -0.40469816 -0.61896086 0.029157924 1.5714167 0.6737258 -0.25687638 -0.15178213 0.027754316 -0.14792679 0.057528917 0.06502357 0.4100495 0.21972238 -0.29573238 -0.0894569 0.22007507 0.22375405 -0.70619464 -0.34882474 -0.4932686 -0.9385484 0.03227126 0.5120158 -0.262554 -0.35588717 -0.008878923 -0.092632994 -0.19617586 0.14695433 0.04230142 -0.21443936 -0.059610564 0.29542089 0.552469 -0.2943055 0.16633295 0.3999061 -0.012982375 0.1930242 0.5442738 -0.13727666 0.35612625 0.259909 0.1839051 -0.11674241 0.016033892 -0.10164675 0.041315798 -0.51886904
9 0.2129325 0.43717 0.3734051 -0.07070823 -0.11863569 -0.0546334 -0.31089446 -0.14021124 -0.06135729 0.7428949 0.05990806 -0.14265127 -0.28397733 -0.40864643 0.25342315 -0.12850931 0.06455576 -0.08125868 1.3023931 0.38163766 -0.016888294 0.10347156 0.25711143 -0.21662426 0.13928875 -0.15424968 0.32333535 0.31212702 0.3876244 -0.16591388 0.17353262 0.16221403 -0.68899584 -0.0445554 -0.4364043 -0.4181364 -0.16955832 -0.17755401 0.50844747 -0.18042575 -0.42443624 0.10020741 -0.28825936 0.36338016 0.15084735 -0.38871694 0.030692043 0.09440429 -0.027128784 0.09867148 -0.0702361 -0.07180367 -0.30222487 0.10943694 -0.15271527 0.09951825 -0.9672721 0.25117585 0.3027145 -0.24698733 0.29279283 0.34363624 -0.32901484 0.58703405
95 0.37338215 0.09492722 -0.25744048 0.25299495 0.22128667 0.6105497 -0.36138096 0.50164574 -0.022407949 0.33571488 -0.10506509 -0.23249829 0.16501318 -0.24418591 -0.34922275 0.16416642 -0.41199827 -0.45485204 1.7227073 0.034989312 0.20012681 -0.14304729 0.54285306 0.0061375895 0.097997665 -0.12019435 0.038309038 0.0015290624 0.7260208 -0.3170477 -0.63177574 0.34935534 -0.47755674 -0.21979837 -0.2724751 -0.15115848 0.21735339 -0.037487086 0.020533506 -0.02350738 0.2134467 -0.4978794 0.54388094 0.13060096 0.23483181 -0.37481195 -0.15198608 -0.035421353 -0.16130885 -0.18857734 0.07712996 0.37653667 0.41508877 0.012535751 -0.7427954 -0.6243654 0.10549597 -0.59138 0.5635316 -0.34536418 -0.31421694 0.55212784 -0.46973276 0.11397321
31 0.083495334 0.30102262 0.39209783 -0.012715646 -0.11657668 -0.08156254 -0.3221172 -0.09068294 -0.14764258 0.7427855 0.088186264 -0.05263113 -0.2175906 -0.36190766 0.37425128 -0.14585696 -0.08890202 -0.08731236 1.259884 0.4965167 -0.033963863 0.1874573 0.24091624 -0.03154192 0.038320404 -0.2060533 0.4021926 0.508746 0.3366508 -0.20011388 0.30745044 0.24081054 -0.70926815 -0.022295628 -0.57957804 -0.4042294 -0.17663741 -0.16314957 0.41627732 -0.041934263 -0.4110591 -0.04748876 -0.21895438 0.23053156 0.007829327 -0.45264778 -0.13119115 0.04101688 -0.076537885 0.035525642 -0.022569455 -0.16823207 -0.36323607 0.2758395 -0.17395423 0.21916354 -0.9856846 0.20432232 0.3050177 -0.19395342 0.12581825 0.19934237 -0.43489033 0.68649524
100 0.37272227 -0.036470782 -0.2705649 0.3217055 0.2897785 0.6076099 -0.37649527 0.4648691 -0.1276485 0.44956252 -0.07112201 -0.26659444 0.0068356753 -0.2306478 -0.2445036 0.06179876 -0.24318132 -0.19744675 1.6661471 0.09913687 0.064657584 -0.20086136 0.536438 -0.10772078 0.0041141156 -0.13219051 0.05797017 -0.06728384 0.4957747 -0.31593627 -0.55676544 0.030484278 -0.50481606 -0.1454984 -0.09820044 -0.04599655 -0.07458523 -0.053106457 0.13826546 -0.019756375 -0.10703925 -0.60863286 0.21935473 0.09198284 0.12833048 -0.49426112 -0.18282911 0.050905272 -0.20911609 0.08495562 0.052666746 0.16041093 0.39512914 -0.098835476 -0.44270313 -0.61959827 0.024345642 -0.5684683 0.30288652 -0.29240063 -0.39947855 0.74605954 -0.6489521 0.3297596
208 -0.008602336 0.007562136 -0.14940178 0.080332056 0.21279706 -0.34698743 0.36078924 0.44504654 -0.43509024 0.4253855 0.043177575 -0.7690343 -0.12363375 -0.20109469 0.071039535 -0.18912914 0.2752873 -0.52378 1.4044874 0.89719355 0.041168008 0.057961687 0.048154153 0.3323584 0.09362859 -0.20016469 -0.32853073 -0.05214601 0.7306152 -0.4570763 0.1791503 0.22856446 -0.32442668 0.51225156 -0.5210195 0.12167242 0.12401912 0.34719825 -0.021980396 0.047173504 -0.5486737 -0.22828089 0.15785939 0.0036393194 -0.100509875 -0.42044613 0.1046603 -0.10838724 -0.13431442 0.14171703 0.16053261 0.517458 0.37756342 0.084521614 0.5307694 -0.2728589 0.18025155 0.047881205 0.4027386 0.13751489 0.5653036 -0.56955004 0.099231094 -0.25799263
59 0.286263 0.10208692 0.27857658 0.4092739 -0.20594198 -0.3013719 0.042466193 0.3357173 -0.19188346 0.4020099 -0.04808064 -0.17680931 0.18317653 0.18420814 0.034291092 -0.15795696 -0.24743481 -0.15058593 1.2428573 0.75670654 -0.046389908 0.16160339 -0.1316191 0.24719173 0.15950042 0.05938692 0.23371929 -0.2981401 -0.24194479 -0.7865406 0.4167703 0.40910172 -0.32626295 -0.14351869 -0.8277172 -0.15102823 -0.17149302 0.112012625 -0.3867175 0.35910136 0.45669037 -0.4181547 -0.20040658 0.610737 0.5094724 -0.4880556 -0.24732451 -0.11483924 0.60476476 -0.45329115 0.3644498 -0.10175569 0.60329145 0.27339637 0.11449438 -1.044095 0.2190708 0.8631903 1.0673007 0.030535402 0.5431092 0.9649088 0.02591128 0.4748349
11 0.1418387 0.2199045 0.23509222 0.1594493 -0.61778885 -0.057455797 0.34339368 0.28424796 0.121606246 0.26257366 0.34815478 -0.27088377 -0.12390334 0.077668875 -0.14153962 -0.18334025 -0.19741258 0.2581308 1.2511464 0.23068407 -0.29282922 -0.44050097 -0.06806154 0.10262281 -0.07725907 0.26832947 -0.100101165 0.4598291 1.3550293 -0.19938993 0.30712762 0.7011635 -0.39342636 0.33920565 -0.3797909 -0.6024894 -0.23662783 0.11598377 0.049140617 -0.22872286 0.17179471 -0.28624392 -0.43550855 0.6687455 -0.064334825 -0.7221755 -0.4776016 0.28051838 -0.00060879195 -0.6236428 0.030934028 0.44454387 -0.4914105 -0.014572955 0.254019 -0.25351763 0.90933925 0.119287066 0.008127284 0.099270135 0.044374388 0.6187934 -0.22963071 -0.018276267
46 0.08445807 0.541602 0.34381577 -0.07218567 0.010569206 -0.035710253 -0.26688075 -0.080395274 -0.11569185 0.8639289 0.09031774 -0.16586952 -0.17428605 -0.48874563 0.30375737 -0.10574713 -0.20978667 -0.20848678 1.1132783 0.50137186 -0.077341095 0.19076921 0.08011765 -0.051467713 0.17555246 -0.16092817 0.41094688 0.47140235 0.3810764 -0.2769062 0.26829994 0.2778671 -0.7323961 0.05610593 -0.46387503 -0.40450746 -0.107821226 -0.1225585 0.5925921 0.0825904 -0.3308001 -0.15347347 -0.3875614 0.29214033 0.041452616 -0.4858108 -0.038360257 0.20746453 0.011084421 -0.029781854 -0.04989266 0.019970592 -0.5049533 0.17824528 -0.29559752 0.14197285 -0.9542009 0.37614822 0.3637157 -0.12644877 0.35349292 0.0946868 -0.45553616 0.70223755
224 0.24490702 0.10824818 -0.059078477 0.4051487 0.10091229 0.020087244 0.052655004 0.27947456 -0.055590626 0.471447 0.10554953 -0.35958424 0.15990393 0.19775352 0.03923125 -0.30856395 0.017557284 0.21323557 1.3222728 0.65441245 0.46063167 0.17314853 -0.23885092 0.17578495 0.047308367 0.011698619 0.004338863 -0.8279236 0.15089819 -1.1452346 0.20450361 0.5534322 -0.39851865 -0.1418635 -1.059235 0.17019291 -0.47167763 0.111996576 -0.35311517 -0.029178707 0.27795932 -0.3065017 -0.36809775 0.5974295 0.50673884 -0.50013685 -0.20678973 0.08775282 1.1665405 -0.59660137 0.2415415 0.20156772 0.27219856 0.70816636 -0.29204953 -0.41780996 0.00290646 0.5801653 0.36198577 0.3266636 0.15067352 0.66267866 0.13542543 0.45932028
197 -0.041580595 -0.043271787 -0.17803782 -0.030129194 0.20815183 -0.36069372 0.3441553 0.46793956 -0.46612865 0.40539035 0.1410543 -0.71419066 -0.13258986 -0.09807075 0.00969285 -0.14062256 0.18872444 -0.47556752 1.4163879 0.929572 0.17500511 0.05678 0.1920736 0.33124733 -0.0021957047 -0.1636579 -0.3172138 -0.017859083 0.7449025 -0.58209044 0.10557389 0.13132061 -0.27531084 0.4214123 -0.593124 0.035221603 0.1472319 0.29312074 0.04582664 0.032286283 -0.5771156 -0.1351681 0.0767414 0.064794086 -0.10317246 -0.34405267 0.116390996 -0.16545483 -0.2132892 -0.0350164 0.2200656 0.485043 0.386855 0.031646207 0.51996166 -0.2877091 0.10117279 -0.004182416 0.38590416 0.1889029 0.6550088 -0.581885 0.16927643 -0.23542598
89 0.19655484 -0.18154402 -0.10070278 0.03024386 0.29468358 -0.28308606 0.2427366 0.54049116 -0.56983143 0.510786 0.21141598 -0.77584326 -0.13116018 0.10845909 -0.028204704 -0.09081043 0.36056164 -0.37835395 1.481331 1.0826564 0.05002135 0.085006386 0.1034148 0.36956218 -0.078527935 -0.2683154 -0.1443638 0.03471986 0.851342 -0.33450034 -0.044528145 0.21914685 -0.15173487 0.50436413 -0.6422176 0.017241903 0.27736118 0.29956934 0.057586964 -0.08066798 -0.24471782 -0.30280986 0.0723136 0.02764521 -0.14992411 -0.3922645 0.02232864 0.0051916097 -0.04822734 0.11056088 0.22945935 0.39744163 0.44343814 -0.041432936 0.40756327 -0.13769715 0.20836198 0.2513827 0.35174167 0.0049795927 0.62253463 -0.84851986 0.08709904 -0.09932524
165 0.143299 0.9717239 -0.476662 0.10778892 0.16195372 0.973752 -0.08087758 0.43339044 -0.29024723 0.6493016 0.08285926 0.2183525 0.31704712 0.059268497 0.3602925 -0.48048708 -0.62216663 0.025027819 1.5728681 0.63639665 -0.2159202 -0.11841373 0.057568554 -0.04674942 0.020778548 0.06284072 0.3189959 0.2138971 -0.3541392 -0.16154686 0.199207 0.17105728 -0.6771039 -0.32627842 -0.50393826 -1.0323782 -0.10095242 0.5620452 -0.28462657 -0.3533845 -0.0049811606 0.07276153 -0.06359873 0.12676798 2.2886667e-05 -0.25842345 -0.17254122 0.31565717 0.5717808 -0.18209101 0.152537 0.38266486 -0.051172663 0.15560132 0.54717624 -0.15493146 0.3215159 0.21389349 0.2844572 -0.064860374 -0.0648539 -0.037412435 0.03562648 -0.5184362
97 0.15187913 0.061540175 0.22095592 0.46898997 0.17342448 0.37693167 0.18973152 0.5568207 -0.3806666 0.3430602 0.13154045 0.2550743 -0.09476343 -0.18272687 -0.1125031 -0.060171492 -0.23282324 -0.29533845 1.6079518 0.3755269 -0.026928868 0.4792873 0.5370528 0.01937702 -0.33581117 0.2305723 -0.11694547 -0.003324965 0.48746413 -0.10554215 -0.3129254 0.049288336 -0.2850934 -0.10635326 -0.058879904 0.11257746 -0.008681654 0.22564974 -0.16536903 -0.30929616 -0.40659836 -0.13067272 -0.22477333 -0.3357878 -0.14104268 -0.30831978 -0.07120543 0.11253794 0.34174484 0.028819937 -0.16755264 0.37972784 0.42938858 -0.43133464 0.07378354 -0.11990644 -0.051208515 0.04603316 -0.12034896 -0.32883468 0.026301673 1.1770662 -0.30981824 0.6854923
72 0.17567275 0.08692992 0.3373529 0.34512654 -0.13681917 -0.26722446 -0.014522746 0.21497753 -0.21103214 0.46572298 0.065695435 -0.20263775 0.18963878 0.2590611 0.070860974 -0.16789432 -0.246952 -0.14558499 1.2266393 0.70735055 -0.07606336 0.16469578 -0.112086914 0.23407903 0.05946918 0.08519497 0.19898833 -0.3323871 -0.22178715 -0.8174477 0.3845061 0.3806516 -0.30968368 -0.18289365 -0.9292152 -0.083668716 -0.13439268 0.15382005 -0.39156508 0.33718368 0.5486233 -0.44134468 -0.18891509 0.5322237 0.4773823 -0.51244324 -0.30616003 -0.06425625 0.60769665 -0.3505491 0.3772899 0.006614263 0.5104904 0.2599354 0.17909567 -1.0510032 0.22803488 0.8369099 1.1518918 -0.008330816 0.52630806 0.9666304 -0.03566317 0.48442096
52 0.28317147 0.0661282 0.16455695 0.32291275 -0.13673878 -0.30006233 -0.09310666 0.22246993 -0.19595009 0.4074803 0.018740213 -0.17012514 0.21773608 0.28230804 -0.023116872 -0.10719312 -0.19419384 -0.12588124 1.1920892 0.7547016 -0.0013177565 0.17233612 -0.110119805 0.20884897 0.12773496 0.11745723 0.31575438 -0.2952471 -0.22982135 -0.8293536 0.3741753 0.385877 -0.32937518 -0.12813947 -0.86067253 -0.12370656 -0.118636936 0.20793755 -0.3365507 0.33105886 0.38887012 -0.4470729 -0.26673245 0.6416872 0.42909852 -0.550261 -0.27828795 -0.08957914 0.58070326 -0.52884495 0.36117232 0.0149459625 0.57910675 0.22619757 0.15465306 -1.0383195 0.20473568 0.85977584 1.1256342 -0.026870085 0.5297125 0.98929626 0.034662172 0.48202786
186 -0.09827426 0.45370206 -0.317639 0.02310955 0.39110872 -0.8072455 0.3275271 0.2810979 -0.6784897 0.36239636 0.2945641 -0.41050616 -0.17880352 -0.22356404 -0.45752364 -0.18149076 -0.00051564194 -0.30822852 1.46825 0.7705142 -0.026163952 -0.13813804 -0.04932619 0.15505195 0.14065582 -0.05907046 -0.10944763 0.0009117398 0.54975647 -0.27493256 0.27192616 0.34276208 -0.2942197 0.12938201 -0.2912395 0.1349771 -0.098326735 0.015355181 -0.32420015 0.18721738 -0.76001227 0.13074365 -0.16796695 -0.15388417 0.1712523 -0.4088253 0.25736415 0.3205279 -0.34535208 -0.14167778 0.16668043 0.4552646 0.4752866 0.42607096 0.2879076 -0.21273045 0.35513347 -0.11235901 0.60879576 0.12136542 0.109819934 -0.4754073 0.17698976 0.032927092
189 0.14927484 0.63366735 -0.5520807 -0.03480049 0.22915646 0.9569632 -0.19507936 0.5169617 0.07516397 0.81134534 -0.06761445 -0.08127477 0.35859504 0.04828371 0.55840486 -0.5842839 -0.42997846 -0.13421758 1.4346594 0.6304999 -0.051704206 0.029154219 -0.026791196 0.078980364 -0.047844235 0.31563717 0.070671484 0.050460983 -0.13780305 -0.17335303 0.14816092 0.2191513 -0.6955552 -0.020999808 -0.70528954 -1.0601721 0.11440506 0.5471957 -0.22472398 0.003574271 -0.12387569 -0.042382363 -0.03329597 0.07870139 -0.09354492 -0.1245482 -0.2739971 0.042959094 0.34230205 -0.24737571 0.057476673 0.25298974 0.028402403 0.02042977 0.8466216 -0.3006862 0.16500962 0.03618779 -0.0088858465 0.04800453 0.21708962 -0.07642558 0.04039065 -0.43742338
55 -0.34734327 0.5345318 -0.4548431 0.14776155 0.49536943 -0.27084684 -0.10875122 -0.12990715 -0.6960176 0.08227677 0.49568743 -0.3079297 0.19357303 -0.022836678 -0.31726304 -0.38370702 -0.36457098 -0.37521818 1.2141504 0.53190005 0.0060969605 -0.48648775 -0.15973124 -0.12019395 0.2695037 0.22689742 -0.26340804 0.14884083 0.6576449 -0.22451624 0.12835461 0.8380882 -0.54629505 -0.11069194 -0.025958953 -0.21721025 -0.4373705 -0.15759617 -0.29607558 0.19890055 -0.393652 0.06637428 -0.1383742 -0.4067565 0.39261344 -0.26011288 -0.07369717 0.10412612 0.10933034 -0.34139857 -0.4608097 -0.004262647 0.19360155 0.689438 0.36417076 -0.21227062 0.4891934 0.0037376084 0.60709614 -0.6433537 0.26572144 0.022623366 0.211836 0.7851576
86 0.008050418 -0.075905696 -0.22032794 0.040172826 0.07098537 -0.23067588 0.21525912 0.49836406 -0.48475003 0.39226472 0.16510287 -0.89974535 -0.06826685 0.08128212 -0.07389503 -0.17915969 0.2183085 -0.5570409 1.4493469 0.98919904 -0.06355991 0.14867333 0.15881117 0.20740122 0.08375631 -0.28274906 -0.2509101 -0.0126417205 0.85631466 -0.46339685 0.0029323765 0.14047946 -0.25620517 0.46301043 -0.5381114 0.12264503 0.123307794 0.36304453 -0.011939756 -0.022393733 -0.32749677 -0.26766637 -0.116284795 -0.0071488717 -0.10720227 -0.36563498 0.16298236 0.060214702 -0.07537606 0.15640134 0.3092485 0.41536254 0.41755456 -0.07349422 0.4963431 -0.14091317 0.12845919 0.13440938 0.47638938 0.17506702 0.58435506 -0.764249 0.16960011 -0.11616653
107 0.2903229 -0.069082506 -0.24947825 0.26957497 0.3106044 0.52192724 -0.27095717 0.47935158 -0.18190143 0.3904804 -0.07327385 -0.26984972 -0.04635769 -0.21526149 -0.209491 -0.041664552 -0.30466297 -0.2966701 1.7726072 0.10192045 0.13821507 -0.25028017 0.48979154 -0.057903863 0.04484707 -0.14989446 -0.011293058 -0.11173025 0.4318392 -0.15884978 -0.5160931 0.084966786 -0.41541657 -0.22201893 0.007097801 -0.13339892 0.039242566 -0.1195574 0.20174715 -0.20127845 0.008849513 -0.61641157 0.16887128 0.16526361 0.19395119 -0.48043543 -0.1233321 -0.06316888 -0.21141428 0.007856507 -0.020969588 0.26057637 0.3738176 -0.12125753 -0.44688874 -0.5691686 -0.15335466 -0.52628195 0.3388586 -0.14671075 -0.39992586 0.76141596 -0.6553581 0.35130095
144 0.14791237 0.20570554 0.22974762 0.29343277 -0.65071446 -0.051838923 0.21393009 0.37993917 0.12573224 0.19663303 0.47298884 -0.5651947 -0.16631953 0.09351093 -0.057214335 -0.09272824 -0.5619983 0.26073354 1.1725007 0.11459959 -0.16450715 -0.39650267 0.08695684 0.23106523 -0.17162775 0.18219624 -0.19890948 0.59911215 1.2768846 0.003347744 0.23997824 0.48800862 -0.49291447 0.23173688 -0.12904434 -0.5963198 -0.113001965 0.14652702 -0.12925975 -0.14188883 -0.19606163 -0.21146594 -0.44932187 0.7232436 0.05402187 -0.83810586 -0.77745306 0.20336542 0.42194885 -0.6412026 0.1898858 0.3799366 -0.34101143 0.117298685 0.23638752 -0.13347013 0.8189662 0.10349014 0.21021493 0.38212696 0.19237241 0.4894334 -0.3397717 0.04554907
120 0.17567836 0.22637077 0.29677102 0.5243567 -0.3820496 -0.41294557 0.111240156 0.44012335 -0.20320138 0.6982136 0.5903947 -0.34920377 0.435447 0.23673701 0.26392004 -0.06888838 -0.17934453 -0.24185689 1.3348508 0.5502385 -0.32518083 -0.3765885 0.100040406 0.32500163 -0.1109671 0.22455154 0.033511814 -0.01982078 0.60569346 -0.09919767 0.32892847 0.3574268 -0.5538522 0.49706218 -0.07915298 -0.27988473 -0.029933503 0.25232282 -0.14229715 -0.30380258 0.17945634 -0.24070457 -0.30611512 0.4822587 -0.21619882 -0.8247711 -0.15447696 -0.04764054 0.09013716 -0.6922138 -0.037087165 0.009020358 -1.182715 -0.18584777 -0.2895068 -0.47256675 0.66204304 -0.38100874 0.0121548455 -0.31110993 -0.23639561 0.4478585 0.6905057 0.1281516
63 0.051084142 0.085880876 0.598643 0.2589968 0.1202537 0.22661445 -0.4538021 0.023039458 -0.22177109 0.646008 0.072975375 -0.026356576 -0.22422984 -0.2810164 -0.16402167 -0.2022538 0.20377086 -0.2332759 1.385846 0.20567484 -0.18300906 0.2634706 0.49504605 -0.49576935 -0.1304361 -0.07409054 0.2106041 0.23801763 0.44448188 -0.0129032675 -0.06358497 0.23099384 -0.6416928 0.095793806 -0.34102264 -0.2713021 -0.052585922 0.060269944 0.3404384 -0.2741901 -0.5993056 -0.24727328 -0.04915965 0.058868855 0.4367205 -0.11813815 0.10212851 0.05804314 0.17701559 -0.09780255 0.14945112 -0.28665915 -0.12877998 0.06751514 -0.20901279 -0.10732983 -0.615354 -0.092708685 0.16930556 -0.11869894 0.10046058 0.59598464 -0.48711678 0.31403705
132 0.02474692 0.14789239 0.25927675 0.20449808 -0.5673983 -0.07178385 0.39651677 0.3893271 0.1787822 0.34894204 0.35149944 -0.24445519 0.048665926 0.099394955 -0.20416668 -0.020882992 -0.16489887 0.09972356 1.1910816 0.32555422 -0.2602906 -0.45077643 0.022207275 0.28576508 -0.062143996 0.2484198 -0.08546103 0.61125803 1.217832 -0.19385509 0.23553932 0.60093254 -0.35071015 0.3583274 -0.3544308 -0.6053445 -0.25313008 0.2196643 -0.010636719 -0.24550518 0.05447892 -0.28905722 -0.35240573 0.5913319 -0.02590487 -0.8830181 -0.6058742 0.29647192 0.064017385 -0.7317591 -0.10554603 0.29021102 -0.65790683 -0.020571234 0.18357535 -0.2981066 0.8589235 0.1354577 0.081219025 0.19873527 -0.111928895 0.560784 -0.17019142 0.048640136
91 0.2420211 -0.026155923 0.04241778 0.46852288 0.10688989 0.25819325 0.03151572 0.5198316 -0.26980343 0.28270945 0.04897901 0.2816831 -0.1073925 -0.2003164 -0.15216534 0.004010676 -0.18361078 -0.18820336 1.6103404 0.44564557 0.049273703 0.4841149 0.43357682 -0.052119005 -0.19307819 0.20175453 -0.0016988774 0.1083117 0.50913346 -0.1139021 -0.1986199 0.052431546 -0.4772975 0.042611018 -0.025146456 0.09207759 0.12726815 0.22739394 -0.15147541 -0.3259292 -0.49409753 -0.008468895 -0.17063794 -0.3294526 -0.13642496 -0.25521803 -0.094068974 0.07763535 0.2892659 0.01834596 -0.18443513 0.35264444 0.42537564 -0.37839106 -0.027073901 -0.1324259 -0.17538781 0.06155887 -0.12481457 -0.34557363 -0.059374932 1.2120228 -0.30898318 0.6362928
94 0.2692701 -0.22588076 -0.0871514 -0.015509822 0.15205517 -0.2860974 0.26767057 0.545325 -0.5950965 0.55010134 0.012684988 -0.79976904 -0.024819229 0.104106165 -0.13227259 -0.15447593 0.22449626 -0.29709095 1.3798172 1.147315 0.11479675 0.100714475 0.08447992 0.33985752 -0.091129184 -0.42071757 -0.29222894 -0.037319124 0.8155703 -0.34719387 -0.18147427 0.24006934 -0.16775592 0.53198195 -0.60663843 -0.036460795 0.22126074 0.31841722 0.01695212 -0.1162945 -0.4040663 -0.33140278 0.08012101 0.1025065 -0.09735897 -0.5487236 0.08835824 -0.07506598 -0.02515334 0.18049373 0.13120155 0.40229478 0.32847008 -0.16657937 0.45948836 -0.21145537 0.20879316 0.2680097 0.37342978 0.025678782 0.69765157 -0.839222 0.071266234 -0.030941017
201 0.3382574 0.7747801 -0.5964837 0.070237614 0.23065692 1.0563388 -0.07941939 0.422556 -0.10290118 0.7738943 -0.004208812 0.07629333 0.52408355 -0.07795277 0.4194719 -0.41625914 -0.43674913 -0.0045856936 1.4491246 0.60619694 -0.090904586 0.0034449215 -0.14464246 0.061684895 0.030057969 0.30757594 0.08694972 0.08005984 -0.20695701 -0.09998629 0.197442 0.15133265 -0.7374432 -0.07167001 -0.6391233 -1.0566145 0.10497281 0.54186285 -0.24726576 -0.029579919 -0.26828203 -0.05550151 -0.008108129 0.19737394 -0.034705386 -0.21737845 -0.34458348 0.045642212 0.29359233 -0.28107604 0.035458155 0.227442 0.057678007 0.049757093 0.74259883 -0.21784315 0.19004488 0.19121118 0.06494395 0.053087957 0.11864927 -0.050607722 0.10542888 -0.4585377
75 0.21075974 0.063085645 0.095205545 0.43068337 0.16662994 0.30302662 0.19015539 0.6108265 -0.26847225 0.41079643 0.11639406 0.24973555 -0.09337134 -0.16675848 -0.0726769 -0.15192054 -0.13517888 -0.29040527 1.6437349 0.28763273 -0.027969994 0.47277993 0.50325507 0.017153244 -0.34124133 0.16685055 0.033139504 -0.009635941 0.55269325 -0.1542303 -0.1837886 0.044310357 -0.34021777 -0.08830471 0.07641694 0.16586609 -0.08346746 0.24770652 -0.22297597 -0.23802043 -0.42081124 -0.07932637 -0.20293231 -0.3482437 -0.11865097 -0.25230995 -0.097490996 0.15542829 0.37698942 -0.010320307 -0.21968114 0.46084753 0.4819961 -0.570866 0.08081388 -0.17468095 -0.034386106 0.114512175 -0.10823574 -0.38837874 -0.039968602 1.1359763 -0.32753187 0.6925678
80 0.16058643 0.028567333 0.16076553 0.45334688 0.043478798 0.3244812 -0.051543646 0.575349 -0.24709773 0.38525808 0.044782743 0.33445394 -0.041149814 -0.18937069 -0.09138892 0.025804533 -0.17115888 -0.18745612 1.566986 0.41486642 -0.1010832 0.5070866 0.42565197 -0.09077958 -0.14941634 0.13182399 -0.07606971 0.04625082 0.56609917 -0.11404991 -0.22760747 0.035777576 -0.39434668 0.06474231 -0.037140448 0.09085812 0.008101914 0.1844976 -0.2268093 -0.31209478 -0.54946095 -0.115706205 -0.19006944 -0.30549458 -0.1436054 -0.19212723 -0.14154543 -0.08811805 0.2484218 0.10051251 -0.13718525 0.5374523 0.4754178 -0.30427182 -0.048155624 -0.07591054 -0.1103742 0.08081347 -0.10579333 -0.39438447 -0.09953813 1.1861562 -0.27047086 0.67043096
129 0.06987607 0.11088402 0.35995883 0.19165687 -0.47644964 -0.044653658 0.47730964 0.30862725 0.19367744 0.4026303 0.57028836 -0.40594184 0.017336316 0.30150488 -0.09957505 0.008717011 -0.29536334 -0.11373813 1.2495397 0.51264393 -0.5464126 -0.45889643 0.06644424 0.14063916 -0.25172332 0.39515263 0.006351049 0.23413037 1.1024725 -0.45099708 0.38227925 0.5160706 -0.40597877 0.21403891 -0.12153836 -0.49673945 -0.2557375 0.21710122 0.09082611 -0.25595015 0.027221628 -0.16711251 -0.18385817 0.6569972 -0.35226008 -0.82267046 -0.485495 0.11956159 0.045335412 -0.6824692 0.019308517 0.22625904 -0.9350297 0.0069770496 0.11952553 -0.40297276 0.75115323 -0.0548564 0.08690535 0.027637275 -0.2628857 0.58430856 0.1403632 0.021967817
114 0.23940061 0.07076653 0.11147369 0.20901322 -0.3315512 -0.16724525 0.099763595 0.3419743 -0.42263457 0.7177779 0.46189108 -0.18933165 0.3327827 -0.09854067 0.17389132 -0.19537012 -0.09768488 -0.58649373 1.3558292 0.8172293 -0.2078364 -0.019175354 0.22735211 0.31528664 -0.045894876 0.14469807 0.06967046 -0.30395213 0.34420013 -0.16267087 0.19738816 -0.1633546 -0.52702296 0.22065793 -0.28552735 -0.3811505 -0.09280884 0.5032896 -0.071745746 0.028650159 0.21786372 -0.108208954 -0.33024016 0.2024972 0.06556788 -0.69662225 0.15718907 -0.43110448 -0.052662753 -0.61599755 0.04261237 0.12610707 -1.273331 0.06603433 -0.53434044 -0.5504171 0.7353077 -0.117984064 -0.07542629 -0.5538746 -0.39250824 0.27599213 0.92202234 0.3992648
77 0.4115057 0.196839 -0.25507686 0.24624395 0.26185015 0.66449606 -0.44422594 0.66058415 -0.11115011 0.30946872 -0.2007337 -0.33137396 0.06688042 -0.06785233 -0.34069777 0.049825963 -0.46991676 -0.2675445 1.7571639 -0.052615605 0.1548228 -0.18350175 0.36407456 0.14072289 0.13106348 -0.21129376 -0.0702926 -0.02804463 0.80020267 -0.35155654 -0.57551616 0.34008664 -0.43303153 -0.37939802 -0.10354407 -0.20749488 0.18337919 0.075120516 -0.13407305 -0.0049913623 0.18907917 -0.6267275 0.58013284 0.0734332 0.14973369 -0.512472 -0.10030361 -0.16628936 -0.26785898 -0.1799083 -0.014992244 0.4592908 0.2796496 0.15484066 -0.8020363 -0.8213425 0.015699634 -0.47602114 0.5967045 -0.17008296 -0.25548738 0.5065405 -0.39489767 0.111166626
119 0.34972355 0.29980624 -0.23626137 0.1714403 -0.076409526 0.0016366531 -0.5929083 -0.06306683 -0.57173747 0.09980581 -0.3118861 -0.31942996 -0.33388546 -0.47789025 0.06847199 -0.27994478 -0.27525097 -0.36354828 1.5307937 0.33950114 0.10207738 0.41723105 0.43490413 0.5921056 -0.4086279 -0.01581442 0.0041907392 -0.15633453 0.29864162 0.13146843 0.34386256 -0.52532715 -0.82090247 -0.09395968 -0.3771446 -0.059456386 -0.16866954 0.44171038 -0.032660116 -0.013586479 0.4361203 -0.1369983 -0.30085304 -0.103469774 0.703151 -0.7804394 -0.09424985 -0.4898471 -0.011459753 -0.69695294 0.29360592 0.49518964 -0.621367 0.3440389 -0.027780866 -0.2895768 0.81169504 0.5268141 -0.16554072 -0.4755953 0.112526186 -0.104159 0.3318328 0.5725161
173 -0.51948535 0.44734368 -0.25559732 -0.060927052 0.25158444 0.20669901 -0.13576664 0.18818375 -0.59721845 0.31232715 0.5123752 -0.5130197 0.056412056 0.31872764 -0.60707605 -0.4020378 -0.6032798 -0.22168721 1.3337214 0.13768196 0.32883614 -0.21860318 -0.30228737 0.0118390145 0.004597565 0.067889564 0.023776995 -0.09700924 0.32209098 -0.19547525 0.24157849 0.7210641 -0.6546132 0.02873043 -0.22617126 -0.5547091 -0.40773988 -0.18698798 -0.13274765 0.12445864 -0.4743028 0.029792678 -0.061720893 -0.19496414 0.25629023 -0.127445 -0.43850422 0.2235266 -0.05234409 -0.30158028 -0.6084296 -0.22683275 0.17254935 0.6306741 0.012254965 -0.111468785 0.74874395 0.23148555 0.40439004 -0.916877 0.42336115 0.19685437 0.35913092 0.983306
158 -0.20358394 0.45476073 -0.32159775 0.08220061 0.4261558 -0.6166776 0.5102346 0.13366656 -0.7309208 0.2684946 0.30004084 -0.3738477 -0.042781398 -0.25991806 -0.42080235 -0.033111755 0.04571787 -0.17368644 1.4693203 0.72172713 -0.077305146 -0.07724118 -0.11389896 0.19279335 0.087155044 -0.0031657955 -0.17076604 0.12782246 0.5391462 -0.3227798 0.028860468 0.22454852 -0.31119096 0.14219442 -0.36084363 0.12501754 -0.16831669 -0.009787858 -0.28292015 0.13489746 -0.7611191 0.21775708 -0.22745174 -0.24990097 0.34634987 -0.4745079 0.15408155 0.3793812 -0.34511688 -0.060491282 0.18384358 0.45872596 0.31846616 0.46065408 0.29949987 -0.35620844 0.34692016 -0.17346823 0.7634388 0.15288691 0.24150017 -0.47959006 0.26306826 0.17538244
185 -0.6328135 0.49373412 -0.25109112 0.018684711 0.21657474 0.22801413 -0.04277446 0.15856369 -0.5977785 0.36015028 0.37748885 -0.50063235 0.04906811 0.3199383 -0.61564296 -0.5294346 -0.58378106 -0.39409572 1.3728021 0.06505816 0.3809699 -0.19514968 -0.34180015 -0.01961976 0.05366064 0.13819934 -0.026772339 -0.07165286 0.28007707 -0.13205151 0.23178202 0.71919805 -0.666258 0.077833556 -0.1475643 -0.48286745 -0.350437 -0.31554303 -0.1283248 0.07080819 -0.42100936 0.09174019 -0.024637654 -0.108472936 0.307671 -0.22734226 -0.45552352 0.20079331 0.031402193 -0.27018034 -0.65954 -0.16502565 0.1382735 0.5931651 -0.00052833016 -0.11608603 0.7337059 0.2643136 0.46410027 -0.8790165 0.4221093 0.19314583 0.3387821 0.9541399
64 0.23625024 0.13495702 0.33599928 0.37921363 -0.10437953 -0.35204878 -0.060599897 0.2188848 -0.15672661 0.3735639 0.04764118 -0.09119592 0.15077464 0.2988513 -0.035581306 -0.074067645 -0.27530852 -0.112712584 1.2549801 0.8364485 -0.045244906 0.11942507 -0.15565914 0.16737178 0.110985205 0.07319612 0.22549465 -0.26136371 -0.24495052 -0.6704679 0.37014276 0.3468978 -0.39056405 -0.047559954 -0.8487782 -0.2298602 -0.16853385 0.21230106 -0.38149598 0.39074793 0.5077241 -0.47608486 -0.19431245 0.65718615 0.46269447 -0.5805993 -0.27648154 -0.15570301 0.52232033 -0.32628217 0.4430212 -0.041065104 0.65166736 0.23207673 0.17530864 -1.0859462 0.21086438 0.8278061 1.0434808 -0.037424866 0.57382494 0.9771998 0.06635785 0.51134354
155 -0.10584836 0.22706608 -0.14185882 0.14140382 0.30160797 -0.5512455 0.3034736 0.28189835 -0.44389302 0.36479256 0.2759274 -0.63449585 -0.22895059 -0.07099427 -0.12608814 -0.0025596619 0.2374937 -0.48747015 1.4031175 1.0853735 0.23323542 0.06131654 -0.026354507 0.352696 0.10731635 -0.23341052 -0.34578645 0.05123818 0.68596923 -0.40154782 0.15988497 0.29353294 -0.4189226 0.27201012 -0.42324102 0.12638214 -0.056602046 0.25793698 -0.17045008 0.23609295 -0.59537303 -0.08533962 0.030876378 -0.1398927 0.026531784 -0.35513726 0.1633985 0.21427904 -0.239659 0.022206565 0.3538944 0.44256222 0.38699308 0.1522139 0.43969548 -0.4083285 0.22708724 -0.18624255 0.2615271 0.11317029 0.51845825 -0.5901535 0.04042325 -0.1878942
101 0.16402037 0.1252805 0.087067805 0.4457153 0.036471516 0.24118018 0.039187048 0.68443763 -0.27577913 0.36538196 0.00022745706 0.34943545 -0.049698636 -0.083889 -0.06597444 0.07418781 -0.17509955 -0.22739466 1.5293325 0.5354808 0.033034943 0.52449614 0.4850796 -0.14721794 -0.27083135 0.06725958 0.003080456 0.051973328 0.523893 -0.16281742 -0.2613475 0.06934214 -0.47685215 0.021951644 -0.02546294 0.0627573 -0.020062927 -0.017210294 -0.21640174 -0.32071063 -0.5697241 -0.017483778 -0.15697367 -0.34692645 -0.011447892 -0.24288335 -0.14958888 -0.088382296 0.28872693 -0.07594468 -0.14628814 0.33409473 0.44223723 -0.5245211 -0.061562385 -0.08871885 -0.087903306 0.07559943 -0.159184 -0.352989 -0.043715328 1.1170337 -0.34209928 0.61420447
168 0.06627082 0.53734607 -0.40913424 0.045222316 0.24698691 1.0254332 -0.20986876 0.48731405 0.06291589 0.68223834 -0.14746222 -0.38222077 0.24468912 -0.089009516 0.48331845 -0.49253675 -0.30048016 -0.24599539 1.4029247 0.6749758 -0.0018947974 0.1282485 -0.01575238 0.16251028 -0.084209256 0.17839213 -0.23727323 0.037785508 -0.14339136 -0.056968033 0.2668593 0.37915474 -0.7503825 -0.07648943 -0.7201805 -0.93864644 0.033553414 0.6144731 -0.1736654 0.15738809 -0.1541124 -0.17272523 -0.050828837 0.3148418 -0.12751259 -0.057996158 -0.2251947 -0.04913909 0.23415688 -0.23330499 -0.3057501 0.25601262 0.09021313 -0.2228839 0.875894 -0.30758098 0.11270795 0.047000356 -0.0018306411 0.12552159 0.24468261 -0.106402315 0.2079097 -0.37809741
39 0.11762382 0.12985255 0.36006495 0.12496195 -0.13792908 0.25890583 -0.2721546 -0.29505888 -0.20041873 0.7931879 -0.055646677 0.0210464 -0.25999415 -0.3679203 0.063253805 -0.18780465 0.196105 -0.10537922 1.2986722 0.35334232 -0.12284758 0.24152833 0.40962484 -0.4124099 -0.11735514 -0.25221837 0.18776345 0.24749021 0.3910215 -0.1967349 0.11389913 0.28200173 -0.78353685 0.1556367 -0.22595881 -0.194192 0.08272224 -0.06155837 0.4277622 -0.049068462 -0.5778607 0.022433955 -0.16772962 0.11903747 0.37085798 -0.3637628 -0.15179716 0.1969981 0.091224335 0.10749265 0.13110153 -0.23003154 -0.20813303 0.050655473 -0.19350874 0.0052534076 -0.7595343 0.022525584 0.2697666 -0.27465844 0.11554167 0.5557934 -0.36396065 0.38078022
73 -0.5076644 0.58840615 -0.5239673 0.0072948756 0.44682425 -0.29052037 -0.04357569 -0.06824748 -0.6347373 0.2142346 0.52281135 -0.2763595 0.09380024 -0.05080909 -0.35049218 -0.46308425 -0.35179874 -0.47661528 1.2506958 0.40057307 0.066883914 -0.48934865 -0.16341788 -0.13687845 0.28151727 0.28430736 -0.1810309 0.22474025 0.55286795 -0.3076777 0.20956083 0.7613916 -0.44306427 -0.0010223219 -0.05139143 -0.11173095 -0.4121113 -0.19324096 -0.13245666 0.19540896 -0.48226762 0.14780234 -0.13579707 -0.42870113 0.35310158 -0.2596727 -0.15902916 0.037760578 0.16041061 -0.3927765 -0.37110612 0.16656436 0.20130047 0.7983385 0.3145933 -0.34559825 0.49826247 -0.053298227 0.5865915 -0.72981495 0.29423258 0.12399916 0.23415218 0.68749636
10 -0.055252716 0.61623937 0.371656 -0.21732612 -0.081735596 -0.046592157 -0.4441984 -0.15582128 -0.12538244 0.8679711 -0.03369429 -0.25691867 -0.2199144 -0.35696688 0.4578327 -0.08724362 -0.24973181 -0.030482672 1.1195263 0.5493368 -0.21095921 0.24195832 -0.10400548 0.0002966707 0.3444849 -0.3926267 0.42287716 0.36385775 0.47412488 -0.26149473 0.23538841 0.37393 -0.8204849 0.026574926 -0.67523664 -0.2904878 -0.15178336 -0.08120218 0.5545086 -0.038537532 -0.38621205 0.016309783 -0.44485477 0.1718985 -0.09018956 -0.65802604 -0.1252409 -0.062369067 -0.0191241 -0.015850717 0.12628481 -0.22147398 -0.4103101 0.17863387 -0.22515818 0.111427106 -0.7676512 0.33613864 0.3214841 -0.23032214 0.15418375 0.12136187 -0.4976267 0.6500965
212 -0.505419 0.56652105 -0.4866231 0.05983407 0.4963255 -0.24586806 -0.038648386 -0.016829496 -0.61960703 0.17566606 0.3560779 -0.25643495 0.123673595 0.000342608 -0.35966092 -0.44990084 -0.28419328 -0.35244784 1.1877449 0.43658733 0.05620959 -0.47438964 -0.21375631 -0.06077741 0.26709843 0.13740444 -0.16818546 0.20029306 0.60031325 -0.28914934 0.27299196 0.74909484 -0.5316317 -0.01743606 -0.0032365748 -0.1784258 -0.4885136 -0.15090246 -0.24144928 0.29049006 -0.5305146 0.026712606 -0.12173727 -0.5237356 0.401828 -0.34345034 -0.16888069 0.15613914 0.17834426 -0.3322119 -0.33535406 0.11567384 0.1530953 0.68910444 0.35093448 -0.3433217 0.52055377 -0.12005927 0.59751284 -0.7163041 0.26729512 0.042414386 0.2181187 0.7931101
190 0.29370236 0.5141472 -0.2671531 -0.08450946 -0.21280915 -0.13811915 -0.5386163 -0.077522956 -0.41128096 0.0026683093 -0.36440596 -0.18091868 -0.275177 -0.49048698 -0.12798466 -0.25330475 -0.3233746 -0.45801976 1.5514973 0.30197003 0.02597136 0.4852536 0.4789772 0.37798077 -0.48481584 0.06608126 -0.1465715 -0.19672896 0.38946876 -0.18816322 0.073957354 -0.36690563 -0.9386511 -0.21293737 -0.3062291 -0.10911106 -0.29055536 0.50570035 0.15377294 -0.10748899 0.38921607 -0.31304654 -0.0993587 0.13172612 0.7004969 -0.55235505 -0.26372206 -0.3747282 -0.06680203 -0.5839455 0.39144415 0.50521636 -0.38515738 0.52545184 0.2580608 -0.20451431 0.8493296 0.78978 -0.30511412 -0.34668577 0.17780775 -0.15553036 0.0038740747 0.61112654
76 0.21136948 0.06983586 0.09929934 0.53507376 0.19767076 0.21930762 0.08001876 0.48658898 -0.31309536 0.36460254 0.25230354 0.2348096 0.017641833 -0.09200114 -0.16717784 -0.13850507 -0.24899527 -0.28575054 1.5598944 0.34416848 -0.089967445 0.5098892 0.50237864 0.07476239 -0.3322216 0.22143658 -0.02581069 0.018698389 0.51546925 -0.19419533 -0.33461025 0.028503992 -0.32556623 -0.032732077 -0.10036814 0.07529767 0.066552125 0.23024042 -0.3472265 -0.4513469 -0.57027286 -0.013039447 -0.12712131 -0.2715849 -0.08284005 -0.32992935 -0.06762888 0.020171113 0.3759637 -0.041507017 -0.14488165 0.5123897 0.481527 -0.5295284 0.14817645 -0.10645702 0.0021010556 0.13199542 -0.2369122 -0.40196887 0.05008579 1.2196264 -0.29317847 0.71781236
138 -0.12377345 0.042666957 0.050959736 0.70636237 -0.045300037 0.23352078 -0.7051277 0.9948322 0.086076155 0.31830865 1.0598195 0.37459648 -0.32290265 -1.2877083 0.1394554 -0.64465344 -0.26334384 -0.36378053 1.0104498 0.5316359 0.41752186 0.6151549 -0.39701095 -0.24469045 -0.35918018 -0.17036797 0.020291958 -0.26393673 0.9194608 -0.8273665 -0.15655914 0.31595683 -0.6880385 -0.33506984 -0.20679799 -0.6894962 -0.24607034 0.21588221 -0.256246 -0.56458473 0.04099201 -0.08334352 -0.16741408 0.2964875 -0.027425947 -1.3388704 -0.5816806 0.29225382 -0.14413916 -0.42975637 0.095955655 0.12629603 0.21345642 0.13712083 0.22058427 -0.6706721 0.24541262 0.43850505 0.7947156 -0.62625974 0.37497464 -0.1722009 0.50183874 0.042982087
220 0.21359374 -0.027568573 -0.10874992 0.54799676 0.15831079 0.06824421 -0.028923992 0.19315223 -0.12013978 0.58952564 0.050728705 -0.309163 0.22419152 0.15667075 -0.018627696 -0.18541203 0.037342012 0.14914425 1.2969509 0.6294191 0.5477566 0.1658002 -0.24969901 0.21533 0.021634094 0.109347664 0.029630514 -0.7280999 0.21559136 -1.1946574 0.27718645 0.5297305 -0.35206935 -0.10803045 -1.1466315 0.10284418 -0.47596946 0.08702928 -0.32263345 0.0005976327 0.2744806 -0.27393094 -0.30903324 0.51499045 0.4600988 -0.5655759 -0.3179228 0.090167716 1.2134081 -0.5973713 0.18009368 0.313616 0.28126597 0.7189378 -0.35282978 -0.30042958 -0.005121362 0.58434314 0.359295 0.36038685 0.07759272 0.60022295 0.17731616 0.44138262
193 -0.59564376 0.5333928 -0.2455276 -0.023422716 0.27357033 0.18210791 -0.096396826 0.17628227 -0.49115124 0.37293443 0.41703776 -0.52508533 0.037711114 0.24014382 -0.67311233 -0.47597784 -0.57403845 -0.3018059 1.4023296 0.08717995 0.24883653 -0.2166105 -0.3228596 -0.07229867 0.074084096 0.07223396 -0.01914635 -0.12027479 0.33930278 -0.106740475 0.24385832 0.67091465 -0.6696723 0.020773025 -0.22899361 -0.41240525 -0.3949071 -0.23276849 -0.20334278 0.12768586 -0.42140353 0.016920933 -0.10511326 -0.11141352 0.23737222 -0.16006336 -0.39114344 0.18388715 -0.041250046 -0.21127315 -0.6996565 -0.21165086 0.1575153 0.6703128 0.06148781 -0.032386243 0.7860815 0.2898002 0.51692814 -0.90501314 0.334144 0.2376936 0.41133988 0.9361637
7 0.009842496 0.082837865 0.25564155 0.100280955 -0.64858764 0.010973479 0.404389 0.3262929 0.09968301 0.40696603 0.45961457 -0.35120642 -0.02270363 0.22203588 -0.16553411 -0.028517017 -0.2123327 -0.049866423 1.2969174 0.35976976 -0.5387504 -0.3689617 -0.0010793344 0.30441457 -0.14162241 0.43424535 -0.18105581 0.430689 1.1806415 -0.36025396 0.41017634 0.5345303 -0.23851523 0.26767182 -0.15131144 -0.55512047 -0.19142862 0.20699972 -0.026632335 -0.22498031 0.041812506 -0.18998241 -0.20062172 0.6673466 -0.14600776 -0.8993244 -0.5857876 0.2902153 0.085812286 -0.7123171 0.015276046 0.1545665 -0.7447503 -0.0013943885 0.14513241 -0.3593858 0.6999547 0.12177755 0.038121846 0.10334626 -0.3628753 0.5008019 -0.010518951 0.064828716
123 0.18156599 0.11093223 0.29527768 0.27782506 -0.5291996 -0.18643653 0.32715008 0.36736324 -0.067158036 0.5593137 0.52140653 -0.33669952 0.33504423 0.2630286 0.09649655 0.12736022 -0.24895641 -0.20979951 1.397516 0.48925015 -0.6347351 -0.34586188 -0.083168164 0.37868178 -0.206476 0.3340904 0.03447917 0.14045665 0.9165276 -0.2421039 0.37651893 0.38115922 -0.41288528 0.42244753 -0.08706772 -0.35144922 -0.28806746 0.07188258 0.097280234 -0.1907089 0.066412196 -0.18744826 -0.3241394 0.53042144 -0.3044274 -0.8051942 -0.42096326 0.27117822 0.19673139 -0.8045884 -0.10801492 0.035885617 -0.9713996 -0.18331987 -0.20986155 -0.51138324 0.5781929 -0.31754413 0.08259585 -0.19362797 -0.21907508 0.49178332 0.65877384 -0.087780684
24 0.06080577 0.03844389 0.56301546 0.087301746 0.21746819 0.23737217 -0.4474519 0.044349965 -0.1523315 0.60972273 -0.011332232 0.013379182 -0.17521769 -0.31883678 -0.22351536 -0.24481152 0.18197256 -0.13708891 1.4507644 0.24385463 -0.19207011 0.4091476 0.40863588 -0.39532796 -0.01819504 -0.16878107 0.26205304 0.16043949 0.5031742 -0.079078324 -0.108567975 0.19867079 -0.53287923 0.12838614 -0.16689521 -0.24625224 0.077229254 -0.039042152 0.28540576 -0.19722576 -0.70513076 -0.2822215 0.03195487 -0.047870677 0.468832 -0.15713176 -0.036898896 -0.019926343 0.2882326 -0.14071439 0.061776035 -0.07819126 -0.14273794 -0.10599124 -0.21843696 -0.12687308 -0.5211731 -0.06355294 0.26425347 -0.2070069 -0.112351805 0.7167818 -0.46629047 0.21723627
196 0.15690802 0.98949945 -0.5621689 0.1501938 0.23249963 0.99818426 -0.19084798 0.27473858 -0.26115832 0.7068082 0.13728914 0.29542112 0.34860057 -0.035001155 0.38331157 -0.41836694 -0.5909515 -0.0487841 1.6098304 0.6338399 -0.23637389 -0.12341124 0.06540209 -0.04467492 0.07102455 0.12996662 0.3217052 0.16527674 -0.3143283 -0.14202876 0.17488109 0.20069306 -0.62665546 -0.21812873 -0.53864086 -0.89797264 0.0778859 0.60676867 -0.2631135 -0.25230435 -0.025090374 0.014363586 -0.12093118 0.2649332 -0.08480378 -0.22619596 -0.19532801 0.31061083 0.48642147 -0.33053422 0.0036432538 0.24523091 0.058212172 0.10915789 0.52792007 -0.1089491 0.38429004 0.2876261 0.21559317 -0.015805284 -0.020167284 -0.05382854 0.031164924 -0.5706836
34 0.32241327 0.35649574 0.47025275 -0.0037728301 -0.003494243 0.13459957 -0.2909488 -0.10642857 -0.14593269 0.6994292 0.116766825 -0.12648828 -0.45703852 -0.3938429 0.3043217 -0.08541325 0.07181565 -0.00083289534 1.2957096 0.2945713 -0.088858254 0.14927861 0.2563844 -0.15812762 0.13774629 -0.20129946 0.20703089 0.33812732 0.245086 -0.28528133 0.2502866 0.31047842 -0.81030464 0.10411595 -0.32516053 -0.29777622 -0.09900708 -0.05744733 0.42765123 -0.2455682 -0.47462744 0.031516697 -0.37852228 0.21433897 0.14455788 -0.2872005 -0.07187351 0.12590542 -0.081240326 0.05584724 0.011978526 -0.1995874 -0.36369658 0.16925418 -0.15803216 0.03869164 -0.9167031 0.19786638 0.33502167 -0.20814049 0.21961024 0.30944768 -0.39919725 0.65367675
171 -0.20237043 0.27368683 -0.19231486 0.08658585 0.2099589 -0.70379025 0.2654625 0.21459006 -0.75957394 0.41201797 0.2776666 -0.5901001 -0.183629 -0.2504414 -0.20720625 -0.05444376 0.11580347 -0.40092465 1.3769715 0.8220399 -0.0115669845 -0.06313723 -0.060746823 0.27025548 0.07203428 -0.041722097 -0.21916254 -0.016913047 0.49811625 -0.452772 0.13741791 0.5382754 -0.3295872 0.07488042 -0.32505056 0.16892746 -0.13208865 0.05987953 -0.27176774 0.11605461 -0.79975826 0.029004265 -0.15710299 -0.32390332 0.091846846 -0.35436124 0.2589674 0.20004351 -0.3834124 -0.13787933 0.18023191 0.5647279 0.37335634 0.27996787 0.25352776 -0.39740813 0.41405067 -0.15232572 0.49449462 0.23798284 0.3671364 -0.53127736 0.0005659039 -0.061251815
162 -0.2282122 0.57012343 -0.18200295 0.12449145 0.44768512 -0.7323372 0.27890682 0.32817507 -0.748235 0.36769107 0.26307803 -0.3003869 0.0041321595 -0.113091506 -0.53118074 -0.14991552 -0.013029243 -0.17418897 1.4181417 0.54487795 -0.030860983 -0.20387052 -0.05999115 -0.05350689 0.23873082 0.0066996 -0.2596488 0.073535845 0.47740114 -0.4276694 0.06840169 0.2527077 -0.31755126 0.117857955 -0.40760264 0.17374757 -0.01651243 -0.02333002 -0.16168475 0.22878961 -0.7833793 0.26214376 -0.23053306 -0.35653389 0.18179578 -0.58477014 0.11291069 0.2597448 -0.31398156 -0.10687923 0.11413886 0.44367582 0.30064282 0.57552457 0.41140613 -0.2171176 0.5038499 -0.11068577 0.7656653 0.058256656 0.1131884 -0.41994315 0.19538255 0.21440637
47 0.08029931 0.0021016183 0.5006287 0.1997282 0.25875533 0.15641983 -0.42675933 0.071460664 -0.18524753 0.7054106 0.021612499 0.013393231 -0.09896885 -0.27408382 -0.3409449 -0.17039557 0.123356305 -0.16674389 1.4061756 0.15418766 -0.10410495 0.4243402 0.42429835 -0.37740254 0.017202131 -0.05956161 0.23270603 0.16575749 0.560699 0.07824498 -0.0906959 0.17543238 -0.6468678 0.16525564 -0.22798571 -0.27335307 0.024458919 0.0014148372 0.27157745 -0.21251671 -0.6034714 -0.2595867 0.044344213 -0.02748477 0.47720248 -0.16678736 -0.07070098 -0.022795832 0.25589627 0.04658152 0.15836956 -0.119115144 -0.15700924 -0.06518279 -0.13898467 -0.07636562 -0.6074961 0.019718522 0.26924938 -0.1817497 -0.10912705 0.75554526 -0.43289325 0.17689104
179 -0.5335236 0.48295626 -0.23921129 0.03965784 0.30858514 0.25062528 -0.06369194 0.24823639 -0.57651776 0.33485755 0.3236821 -0.6499243 0.0032445963 0.28555036 -0.5916913 -0.46749634 -0.6030517 -0.30362678 1.340361 0.12199386 0.28159142 -0.22935924 -0.3398362 -0.06065871 0.050242767 0.056563534 0.038707167 -0.15783209 0.33161625 -0.18447442 0.24452253 0.69005126 -0.5763277 0.06301708 -0.13036306 -0.5393727 -0.42416432 -0.2108705 -0.14624803 0.02898811 -0.47632018 0.09760976 -0.072186016 -0.13336286 0.279749 -0.12082872 -0.4700394 0.160527 -0.06898963 -0.28708053 -0.68016243 -0.20658311 0.1072372 0.631363 0.022903742 -0.058566444 0.7516225 0.3146507 0.5137094 -0.910623 0.44829342 0.25959486 0.35677838 0.9464735
214 0.1848632 0.06515538 -0.21824656 0.45074788 0.12304884 0.029107058 0.003909669 0.12720867 -0.1214946 0.56137365 0.15437417 -0.3075019 0.24810113 0.11357103 0.0150728235 -0.27823883 -0.0052609676 0.21788557 1.2860361 0.6400541 0.44441736 0.14739028 -0.17895822 0.24599443 -0.098673925 -0.0014527764 0.11472158 -0.7826722 0.23248245 -1.2024707 0.22357726 0.60935014 -0.31001124 -0.110093914 -1.1780294 0.2175757 -0.46015188 0.15070714 -0.42217714 -0.058860872 0.28257358 -0.35555834 -0.38240543 0.5395396 0.48307252 -0.5213502 -0.35287112 0.038979232 1.1876048 -0.50955343 0.11989019 0.27374303 0.23781896 0.7266688 -0.36316788 -0.4205449 -0.04739385 0.5864078 0.32499236 0.36899236 0.098602004 0.61408895 0.14026135 0.4439082
183 -0.5240739 0.547283 -0.29461747 0.05319693 0.1755809 0.2204149 -0.09688842 0.15694591 -0.6097088 0.37261942 0.42696688 -0.46611163 0.06510731 0.28350303 -0.6521017 -0.46888262 -0.6314537 -0.25932607 1.2980058 0.19612932 0.30825862 -0.23781218 -0.28561342 -0.085114986 -0.017331667 0.08539691 -0.07634658 -0.09231763 0.31078 -0.17223518 0.19212258 0.6488645 -0.6349465 0.12698328 -0.24113709 -0.50375277 -0.3415417 -0.18880217 -0.16284145 0.13669488 -0.470873 0.00026880493 -0.051315613 -0.09633665 0.26189646 -0.2070902 -0.50859624 0.18323323 -0.021015318 -0.19591492 -0.69721174 -0.24538003 0.1520847 0.67924136 -0.005729326 -0.10210519 0.75597715 0.27728677 0.45990273 -0.9607595 0.36889866 0.21830761 0.34338006 0.9835567
69 0.14487925 -0.0028969995 0.44341195 0.15709887 0.07811234 0.17857985 -0.16025071 -0.22802673 -0.16697021 0.83611524 0.1197352 -0.21350011 -0.24441968 -0.36198342 -0.0006093051 -0.21100694 0.5085779 -0.011568516 1.441245 0.12074307 -0.14788744 0.29046768 0.48508048 -0.7251319 -0.3435113 -0.20033841 0.28561214 0.3220145 0.43734205 0.0422142 -0.07242771 0.2191165 -0.7656522 0.071527004 -0.21720785 -0.32706705 0.09010887 -0.15978375 0.07704921 -0.16919737 -0.5494804 -0.25548357 -0.094049856 -0.10272172 0.20108877 -0.09927298 -0.13486458 -0.109849416 0.19098619 -0.29447925 0.2295961 -0.2587998 0.011536262 0.13944839 -0.21865094 -0.20745099 -0.58594537 0.20007105 0.24322833 -0.33112794 -0.08418923 0.5210186 -0.3142582 0.22168724
128 -0.1172763 0.013224301 0.06404982 0.6768503 -0.026385402 0.26237327 -0.72613186 0.98398036 0.104425564 0.35992962 0.9883428 0.35595757 -0.30915403 -1.2389241 0.09673315 -0.70168775 -0.2824849 -0.31425574 1.0762289 0.5863978 0.40446368 0.64417326 -0.41183537 -0.19619344 -0.2880772 -0.2109859 0.06715409 -0.2505837 0.87088835 -0.7398367 -0.26372725 0.31377128 -0.5662693 -0.26731297 -0.16868724 -0.64502555 -0.20694871 0.14342476 -0.3398418 -0.60261124 0.061243575 -0.14139062 -0.28884268 0.20781574 -0.02234208 -1.4847233 -0.6679286 0.33209977 -0.16892281 -0.41950235 0.12332668 -0.006812733 0.18431203 0.2238277 0.25046036 -0.68683904 0.20305505 0.42202607 0.69729584 -0.5632195 0.39597085 -0.18456805 0.5291861 0.046445254
16 0.24470629 0.41554797 -0.17928196 0.046758167 0.013266287 -0.30551803 0.48829675 0.17121205 0.07009104 0.3674393 0.07963867 -0.3709254 -0.10612437 -0.44875076 0.05728043 -0.123884775 -0.42990324 -0.15694271 1.3811321 0.21873836 -0.33097082 0.059591785 0.024442682 0.20049262 0.42737043 0.119126216 -0.21819815 0.14086525 -0.05768002 -0.80120605 0.032186795 0.12874702 -0.57219386 -0.2862984 -0.54007375 -0.73703074 -0.052632116 0.27279687 -0.5023231 0.12929298 0.28561965 -0.0816319 -0.48678756 0.32101047 -0.56342334 -0.96010745 -0.41963556 0.06790065 0.03326341 -0.47770923 -0.15024687 0.60985243 -0.21203953 0.119969696 -0.5168032 0.33801177 -0.47523212 0.1421674 0.23914772 -0.9073386 1.0165477 -0.2253743 -0.47085965 0.6046755
113 0.69550973 1.4646621 2.8514166 2.207972 2.0909653 -0.82692903 0.35936558 0.33910605 -1.1006756 -0.017433733 -1.4898076 -2.7101226 -0.059176326 -0.7981963 0.4044948 1.1694599 -1.2858492 -1.1664339 5.230598 3.0824716 -0.7982888 -1.9537238 0.821643 0.5647255 0.45485634 -0.5980213 0.9339723 1.164083 0.7752422 0.19209191 0.38058013 -0.3572522 -0.6217782 0.07354597 0.1625856 0.6047094 0.24878827 -0.08941086 0.20928767 0.68357223 0.7922284 0.8350357 0.8423721 -0.5940112 0.8004444 1.5617231 0.43204254 0.6903083 0.54794437 -0.22478764 -0.007565376 0.77131164 0.2657615 -0.86625814 1.229601 -0.43464324 1.1525286 1.2353005 -0.64267385 0.49331442 0.17835808 0.7803651 -0.14253059 1.4815556
215 0.22097623 0.005547884 0.33384585 0.33941412 -0.10416324 -0.22188687 -0.07889422 0.27847168 -0.24467026 0.39292616 0.089834 -0.13800591 0.150049 0.32271203 0.04440519 -0.10105295 -0.21937968 -0.1054056 1.2655916 0.73866236 -0.130225 0.16244665 -0.17157501 0.22474137 0.16348198 0.06505041 0.17601208 -0.20579213 -0.26732057 -0.71855664 0.40793297 0.33856562 -0.3105335 -0.13503894 -0.8292302 -0.16662242 -0.10307851 0.18686663 -0.32029125 0.370744 0.4655128 -0.42315555 -0.24260387 0.6358992 0.46227655 -0.51587546 -0.25801557 -0.13476235 0.4914414 -0.51074237 0.48363024 0.016498402 0.6254984 0.3007821 0.15690476 -1.1064088 0.22292504 0.858074 1.0823314 -0.05371267 0.6061455 0.98422986 0.033416744 0.5153651
87 0.2970948 -0.03510325 -0.362302 0.18792681 0.31419426 0.6241334 -0.2628668 0.51017106 -0.234815 0.36174682 -0.016219826 -0.29867795 0.041832913 -0.2887288 -0.27329397 0.1520428 -0.44617727 -0.23298547 1.6566298 0.19214374 0.10534033 -0.19229238 0.63357544 -0.044045385 -0.07542751 -0.06602181 -0.13290435 -0.13782682 0.5213331 -0.33750376 -0.54879194 0.21113978 -0.4571423 -0.32246837 -0.24526207 -0.18572752 0.12703262 -0.19720452 0.07412581 -0.15123017 0.03843382 -0.6827484 0.3448028 0.20406461 0.373407 -0.45005733 -0.0992006 -0.0019834014 -0.2740827 -0.07749684 0.0926058 0.30177754 0.28460917 -0.106824376 -0.5912433 -0.5979328 0.023123244 -0.6822815 0.4207712 -0.35942113 -0.2512415 0.74724644 -0.6114893 0.17243606
1 0.046002463 0.20115143 0.18845122 0.20958716 -0.74271935 0.0010882639 0.50430685 0.3469548 0.13483588 0.34732878 0.3582903 -0.3194614 0.014493018 0.07344432 -0.24101344 -0.0966069 -0.20300968 0.00707572 1.1978105 0.44399703 -0.38753253 -0.3700876 0.03923909 0.18352726 -0.062258355 0.28385547 -0.09347221 0.45953953 1.2312174 -0.22274335 0.2709921 0.60843045 -0.34884185 0.3588034 -0.20027503 -0.7112324 -0.18526435 0.028644565 -0.026573075 -0.2565538 0.112858206 -0.27720433 -0.35935745 0.61147314 -0.057434246 -0.8147579 -0.5199231 0.25433332 0.06245855 -0.76158065 0.036499873 0.25326097 -0.61081064 0.0016084574 0.12661539 -0.2999855 0.829719 0.097327255 -0.00070060417 0.28456762 -0.11064183 0.5442921 -0.10549792 0.12306806
37 0.17101367 0.17928222 0.41847867 0.068894506 -0.21866052 0.21304116 -0.25646245 -0.19826262 -0.16423957 0.75669587 -0.029615013 0.012724232 -0.31424373 -0.32926276 0.0893645 -0.12341849 0.20391014 -0.07229042 1.3021959 0.4979959 -0.16755728 0.25918883 0.36323893 -0.47141066 -0.09492556 -0.24097136 0.1573305 0.14218327 0.45925754 -0.08379114 0.095371105 0.26802874 -0.78245246 0.07047804 -0.19351941 -0.26007038 0.10512499 -0.026286848 0.41410875 0.0068379203 -0.54062146 -0.047588907 -0.2214087 0.08838053 0.40166333 -0.34389362 -0.11522988 0.18570922 0.09282275 0.106502056 -0.0037876465 -0.23276088 -0.12450907 0.1601021 -0.24675573 -0.051161185 -0.8047824 0.05225076 0.21838172 -0.34737372 0.021775922 0.49950334 -0.42789245 0.34020022
45 0.2139215 0.4267118 -0.12461083 0.01772498 -0.095960185 -0.2288696 0.45383433 0.2914223 0.039884817 0.36333987 0.1656206 -0.30723673 -0.09207831 -0.45868495 -0.007588478 0.0016596443 -0.48783153 -0.043478083 1.4226228 0.2235812 -0.2969124 0.08012444 0.052512087 0.18161666 0.43562546 0.19969283 -0.23070547 0.13236482 -0.056488197 -0.79848754 0.05113218 0.12511095 -0.5829884 -0.2210673 -0.5377176 -0.6668939 -0.09242045 0.35666168 -0.5462899 0.23656699 0.31922314 -0.20189516 -0.52741694 0.23683025 -0.5586973 -0.8594131 -0.44317868 0.12679312 0.037375353 -0.47596836 -0.08439271 0.51222265 -0.20568053 0.18413505 -0.51400346 0.24169584 -0.5248379 0.09349677 0.14026785 -0.9039134 1.0173893 -0.34170547 -0.47839534 0.64663535
83 0.30812356 -0.053265356 -0.15178804 0.3590309 0.21732363 0.55844575 -0.29529154 0.39324453 -0.12719727 0.43706807 -0.0059085633 -0.20055836 0.16186674 -0.29429856 -0.13989542 -0.018043714 -0.20574217 -0.23571484 1.8114305 0.12625118 0.21324462 -0.1539316 0.47486046 -0.150355 0.10434712 -0.18105178 -0.016242625 -0.0440779 0.47019506 -0.2169119 -0.44288802 0.04022405 -0.4425474 -0.1537112 0.02260326 -0.10202032 -0.022820575 -0.22929008 0.29035085 -0.068958074 -0.050423484 -0.4662168 0.2661867 0.15555522 0.1788756 -0.40418085 -0.20162168 0.02188482 -0.21790682 0.11289649 0.102180496 0.30200934 0.42918944 -0.16871403 -0.44565696 -0.5271381 -0.04111861 -0.45915765 0.25829577 -0.24043863 -0.41234308 0.7517355 -0.63101196 0.37781116
71 -0.36923876 0.35746598 -0.39082447 -0.05328774 0.5658625 -0.14759809 -0.14674471 -0.15171206 -0.7074906 0.24119864 0.48260686 -0.13605614 0.2584346 -0.024818605 -0.42378274 -0.397444 -0.5215586 -0.2777403 1.2649109 0.5629973 0.07163815 -0.57981104 -0.15131727 -0.087234475 0.14579229 0.34338722 -0.4310452 0.11743754 0.5132906 -0.21572225 0.006139518 0.90133303 -0.62712425 -0.16054593 0.14513285 -0.2714634 -0.6094551 -0.19530112 -0.31763485 0.29649106 -0.4082313 0.12583676 -0.15567808 -0.29435813 0.37154955 -0.45879388 -0.0152368685 -0.007244181 0.020081399 -0.4378583 -0.346543 -0.0531073 0.124276854 0.7261948 0.31172785 -0.013656616 0.44839913 0.1424798 0.62620187 -0.58061594 0.3055941 0.20506135 0.2535675 0.73068875
36 0.31665996 0.57081944 0.25452635 -0.0016357817 -0.20002075 -0.08302374 -0.22107713 -0.09433113 0.14895588 0.8157775 0.116184495 -0.012315996 -0.2159731 -0.50380254 -0.1069992 -0.10374177 -0.16162916 -0.32757777 1.2053925 0.31619686 -0.38792604 0.02697338 -0.08289861 0.105493255 0.45510048 -0.13171637 0.2497025 0.2538593 0.19887584 -0.31342393 0.19755155 0.525176 -0.47506395 -0.058201697 -0.61021614 -0.46020123 0.052864626 0.36820778 0.28461105 0.14592215 -0.17567304 -0.11366658 -0.28919238 0.27813897 -0.048182603 -0.59536195 -0.18699785 0.1204555 0.006125583 -0.31517902 -0.021387141 0.20463163 -0.5206142 0.31408948 -0.4042875 0.4391348 -0.9319972 0.16692811 0.3408995 -0.32938302 0.88266206 -0.1363403 -0.37102297 0.74406964
110 0.5791053 0.45161593 -0.26577887 0.050289586 -0.052414075 -0.068369165 -0.48913893 -0.098388545 -0.44771454 -0.10079332 -0.6106887 -0.25970355 -0.39886278 -0.57015026 -0.16151239 -0.22156301 -0.50991297 -0.43789232 1.5640938 0.39039382 -0.031098215 0.40801907 0.31344402 0.30229962 -0.45769045 0.106074676 0.01453572 -0.13965157 0.41848814 -0.23473229 0.018944954 -0.35963628 -0.8498269 -0.15912707 -0.38101926 -0.06753539 -0.4501862 0.24835992 0.32061407 -0.028599955 0.31784075 -0.294847 -0.15100563 -0.09500042 0.60893667 -0.40960163 -0.601823 -0.21583508 -0.080135986 -0.6948003 0.4462795 0.5921264 -0.3628659 0.4473776 0.24529411 -0.25382668 0.70700705 0.89878887 -0.27884296 -0.4220249 0.27015167 -0.11358372 0.18999457 0.41777122
65 0.722156 1.4418976 2.7991633 2.139481 2.1263008 -0.7707283 0.40935653 0.39415303 -1.1335286 0.06706113 -1.4365271 -2.6740742 -0.14208996 -0.6730762 0.29923064 1.0893214 -1.2686208 -1.1865064 5.154196 3.0695574 -0.71618617 -1.9396774 0.8147821 0.5331083 0.40837103 -0.6107136 0.8876412 1.0397024 0.7628283 0.20718685 0.39379525 -0.29383308 -0.5301261 0.05995306 0.055455342 0.5574468 0.21915957 -0.19459432 0.116707064 0.6213797 0.8150984 0.7657032 0.84306896 -0.5271296 0.77600205 1.505296 0.39879146 0.5991959 0.49526238 -0.13022001 0.06491295 0.62717134 0.28554922 -0.83358556 1.2094322 -0.33173454 1.1930264 1.1609756 -0.59126544 0.49402505 0.16113748 0.8122285 -0.1182603 1.4622369
58 0.7134289 1.4368609 2.7982626 2.1517973 2.1305537 -0.7711404 0.41828418 0.38668707 -1.1302909 0.060174342 -1.4266179 -2.6725667 -0.13544887 -0.68504477 0.28439146 1.0910938 -1.2671843 -1.1990983 5.160557 3.0716555 -0.7211024 -1.9451994 0.82040375 0.53802943 0.40525427 -0.59188175 0.8941827 1.0292628 0.75915015 0.20822479 0.38936603 -0.28285965 -0.535196 0.0412641 0.06277318 0.56226134 0.2177571 -0.18971314 0.10050136 0.6090809 0.8136986 0.77543396 0.8411288 -0.51971495 0.76007694 1.4875319 0.39549276 0.5821214 0.514642 -0.1160742 0.07426885 0.6364398 0.27353948 -0.8366095 1.2133323 -0.32921696 1.1977603 1.1507099 -0.5984537 0.50241196 0.14599647 0.8070648 -0.11488909 1.4693063
125 0.583282 0.3838609 0.0085273655 0.31148544 -0.17037605 -0.1512534 -0.4980888 0.08941834 -0.69817543 0.34090453 0.15335722 -0.4345954 0.14443737 -0.3848232 0.35843012 -0.25243762 -0.32116097 -0.4934436 1.4756402 0.38012844 0.21794659 0.32831427 0.33967087 0.5941877 -0.52148795 0.08726264 0.317034 -0.36626798 0.17917807 0.07286382 0.2557498 -0.5227656 -0.78047395 0.08241088 -0.19633813 -0.006692017 -0.19578539 0.5035768 0.04193931 0.28907576 0.29779828 -0.13313393 -0.41291958 -0.12408988 0.5191104 -0.8023998 -0.012524086 -0.65376556 0.21149771 -0.54704744 0.107016616 0.31547594 -0.82272315 0.21614093 -0.26685423 -0.15757863 0.82373756 -0.04934928 0.10915797 -0.61743057 0.18267907 0.023871409 0.5021639 0.28610942
62 -0.15869987 0.13411675 -0.29975715 -0.18870956 0.48340234 -0.02198316 -0.39078814 -0.023536678 -0.47745818 0.3791152 0.35972553 -0.08832327 0.4116919 -0.19595101 -0.30749717 -0.6718865 -0.68125737 0.05037157 1.2668365 0.6983118 -0.21416713 -0.549901 0.10840754 -0.1653287 0.17303303 0.5314094 -0.6019024 0.35565805 0.6224013 -0.26237848 -0.061136417 0.9055213 -0.7114497 -0.10187149 0.1832979 -0.15059283 -0.8325588 -0.12616381 -0.310561 0.36937883 -0.06028942 0.40173152 -0.13857435 -0.4112711 0.40910017 -0.44438675 0.00019538352 -0.19181477 0.31280002 -0.565989 -0.43746427 -0.010846457 0.17309733 0.53820705 0.2869329 -0.16776116 0.33993015 0.11077429 0.7297966 -0.49681747 0.2595045 0.05577007 0.2909346 0.8614236
202 0.18600737 0.9392323 -0.45934775 0.21243805 0.2602304 0.96879923 -0.047837175 0.4132227 -0.35077673 0.73282945 0.10674607 0.26225126 0.32932615 0.04703917 0.39202973 -0.3872667 -0.5428321 -0.0033956005 1.5565788 0.66397715 -0.31543267 -0.21072677 -0.08034053 -0.08192742 0.08691176 0.026737014 0.32626465 0.21659471 -0.26073423 -0.05387572 0.1495364 0.14379476 -0.724354 -0.36861265 -0.4942917 -0.9627195 -0.0059056687 0.5831801 -0.3516997 -0.38648248 0.06300436 -0.1362507 -0.10202101 0.09150163 0.023654437 -0.30084425 -0.154708 0.3121493 0.55518353 -0.1381646 0.09442662 0.31854787 -0.043596044 0.27915806 0.57189614 -0.07139937 0.36826056 0.3344127 0.2299035 -0.10496968 -0.045078516 -0.039427064 -0.020740673 -0.5569441
142 0.15247288 -0.0150648635 0.41415158 0.15143576 0.15519546 -0.011281238 -0.16842562 -0.22267185 -0.32705122 0.59546167 0.0491084 -0.42120865 0.383732 -0.12348938 -0.14105417 -0.3397108 0.47704673 -0.15482983 1.6221486 0.04878466 0.24867553 0.5005502 0.65189976 -1.2741611 -0.5806676 -0.38556957 -0.03976807 0.32320273 0.47013006 -0.047394272 0.35677356 0.21533999 -0.74168396 0.30384943 -0.32760987 -0.7036975 -0.5086167 -0.0603075 -0.1987535 -0.104414575 -0.58228195 -0.12323005 -0.29157484 -0.056773588 0.06405017 -0.3548487 -0.03401128 -0.05559803 0.35153764 -0.44947666 0.15713236 -0.31093076 -0.28843296 0.3070669 -0.09481654 -0.70318496 -0.107428774 0.71250427 0.34832534 -0.20133977 0.11054919 0.26049677 -0.2742447 -0.31763038
54 0.17513505 -0.14693712 0.5350188 0.14644104 0.14407147 0.08117849 -0.24926911 -0.347783 -0.3731208 0.6073355 0.06032963 -0.2768579 0.24435344 -0.20980896 0.027622383 -0.17252962 0.40769452 -0.08069178 1.5891984 0.14571728 0.2413585 0.58354396 0.6864722 -1.1277133 -0.44483912 -0.25013727 0.047326244 0.48450267 0.41693187 -0.15204704 0.1811236 0.11178991 -0.70896477 0.4769231 -0.25897518 -0.6677526 -0.348896 -0.10558954 -0.17720783 -0.083611205 -0.653128 -0.15651673 -0.26359305 -0.033053674 0.060824245 -0.26346627 -0.04893751 0.14792365 0.36533746 -0.39615762 0.06964113 -0.3111563 -0.23710099 0.42399332 -0.13239613 -0.6949209 -0.14340249 0.5733407 0.25696135 -0.26142827 0.06990055 0.27562445 -0.29939887 -0.14684749
49 0.24786466 0.44129482 -0.32506374 0.43531078 -0.094885446 0.2294428 0.5211856 0.061705343 -0.29939884 1.4077169 0.25259194 0.22522941 -0.6902839 0.47373793 0.23391832 0.3369609 -0.5922385 -0.12121366 1.1315185 -0.023555405 0.2713893 0.6780556 1.4029932 0.40733534 0.7396571 -0.12313119 -0.37882277 -0.67635775 0.6666904 -0.103483714 -0.06930948 1.0613283 -1.015076 0.225268 -0.32680893 -0.557144 -0.89602107 0.4817663 0.109339096 -0.2732818 0.008356197 -0.2540506 -0.70014125 -0.149923 -0.25175288 -0.9376066 -0.723092 -0.4568836 0.05764296 -0.30451214 0.16901104 0.1739535 0.29197097 0.45246607 0.22794743 -0.63903415 0.29960793 0.5714743 0.72099394 -0.58135676 0.22614121 -0.018501276 0.31418625 -0.07140644
13 2.3278265 2.3950489 -0.81219363 0.1825067 2.0044816 -1.1667461 1.9412858 -0.38336396 -2.3105097 0.544776 -0.31320202 -1.5656493 0.23138528 -1.8321669 -3.3634613 -0.4972057 -1.4765438 0.473527 6.6118445 1.3262259 -1.7661355 -1.3385575 3.453228 1.0334054 0.08116522 -2.594558 2.1306274 1.1639557 1.1775651 -1.8468765 1.484705 -0.5254809 1.5895693 2.029552 -1.5812863 1.2835395 -0.49709386 -0.43106073 -2.1071372 0.8081002 -0.08192006 0.10064784 1.9839574 -1.895219 -1.1338043 0.7973628 -2.729579 1.5763129 0.8503578 -0.61251634 1.2933606 1.1634445 -0.4070505 -2.1330945 1.682953 -0.56848013 0.5281454 1.0164042 -1.0661968 0.61292595 -1.0985354 2.7507074 0.8210575 -0.12198843
226 0.5614228 1.3225803 2.1066077 -0.6215745 2.3624158 -1.036618 2.6655815 0.62473977 -3.5933418 1.3114212 -2.7401962 -2.0617726 1.0111898 1.5527427 -1.5183836 1.966954 -0.41329983 -0.32849437 5.762245 1.6227303 -2.0404603 -1.4531868 1.510241 -0.026802363 -1.2653873 -1.9578315 0.38555434 -0.4775212 1.1979724 2.207818 2.8003297 -1.3164102 -0.65746707 1.088432 -1.7959386 -0.33194605 0.49766546 -0.43440753 -0.7589331 2.960607 1.2125547 -2.1395345 0.79949087 1.9578809 0.6351086 1.7910376 -1.4557855 1.2805104 -0.72444564 -1.3406087 -0.02688482 -0.18660606 0.5801029 -2.385558 0.44559538 0.5231878 -0.2699128 0.17443176 -0.58613694 0.5861453 0.03381494 2.0424867 -0.2683913 1.0836673
135 2.159331 2.1878545 2.8739636 1.6952411 0.4217997 2.784134 0.6322257 0.64629936 -2.4979112 -0.44889003 -0.15782659 -0.30451673 2.3902388 -0.6681404 -0.13400064 1.3132294 -1.2847074 0.7474576 9.349925 2.0480757 -2.2430987 -2.274695 0.8973113 0.8133273 0.94287175 -0.9478786 -0.48963776 0.77987796 1.3839138 -0.59330666 2.1847155 -1.5784922 -0.79585904 0.1313294 -0.1910588 0.15617366 1.3096312 -1.4318522 -0.5480211 2.02375 0.23647565 1.2193562 3.171144 -0.40485156 0.68657696 -0.15614481 -1.0480181 -0.43041268 -0.846292 0.62374926 -0.96469337 -1.4164551 0.8357852 -2.5415092 1.4292123 0.75053614 2.7154117 2.3958445 -1.6304771 0.8801679 -0.33398804 0.89556617 -1.0087999 2.863931
152 -0.015970532 0.64078695 -0.4220848 0.06950662 0.26111487 1.0257342 -0.19971257 0.3533032 0.15560763 0.7300061 -0.04234415 -0.3862943 0.2715452 -0.1560083 0.5798482 -0.52850604 -0.301757 -0.23041558 1.407706 0.6614164 -0.08959233 0.17504722 0.0341335 0.18436944 -0.005594052 0.19577321 -0.19022661 0.093247406 -0.20547622 -0.14754476 0.08743907 0.3545036 -0.6838754 0.01773935 -0.6597141 -0.92027676 0.18976142 0.5446971 -0.14734854 0.11851354 -0.20451635 -0.0636214 0.011223083 0.3454005 -0.11027474 -0.1138952 -0.30593055 -0.13993971 0.3379416 -0.32530406 -0.29896015 0.29278898 0.10172424 -0.0006571577 0.8917852 -0.4722182 0.16268313 0.0004342821 -0.15887214 0.07518435 0.30575666 -0.022681477 0.19494942 -0.38838768
149 -0.3695839 0.55009514 -0.44618666 0.22836637 0.5889875 -0.4923834 0.31093094 0.12175918 -0.7672447 0.2747195 0.3632442 -0.20710506 0.065270305 -0.06847563 -0.4705691 -0.22534952 -0.20557448 -0.3725818 1.2531015 0.49396768 -0.18399744 -0.3204239 -0.08519931 -0.14528112 0.07760806 -0.04828825 -0.29095122 0.018187223 0.7650045 -0.4800197 0.28320175 0.4317378 -0.25813138 0.13070886 -0.1733375 0.13345426 -0.20258418 -0.0927625 -0.123064816 0.3790356 -0.7478865 0.19564909 -0.22387901 -0.21937117 0.319244 -0.36148933 -0.028177353 0.021014959 -0.21130282 -0.1639152 -0.054090727 0.28739482 0.3063097 0.6281561 0.35627788 -0.26937374 0.4586578 -0.13965815 0.7621667 -0.20465533 0.22820666 -0.4096591 0.22421968 0.6001748
146 0.13629729 -0.07987329 0.44821072 0.21025933 0.24326222 0.0324877 -0.031630747 -0.29642442 -0.2790845 0.53113747 0.162915 -0.3605608 0.38575205 -0.24380408 -0.09188076 -0.47946414 0.44447348 -0.14651388 1.5805465 0.18183431 0.07410181 0.5899304 0.70231736 -1.2116036 -0.6497419 -0.48182312 0.011250085 0.31427705 0.46024373 0.041885298 0.43815854 0.28201917 -0.7780313 0.31963292 -0.37578073 -0.686883 -0.48462492 -0.10501108 -0.12075416 -0.08325564 -0.6199093 -0.2420631 -0.2939419 -0.07493274 0.14725296 -0.3400286 -0.007949734 0.013171693 0.38966456 -0.46585876 0.1626254 -0.4187738 -0.22978418 0.3796524 -0.1422264 -0.7477425 0.052355725 0.6468377 0.23496543 -0.17037468 0.17896348 0.24769919 -0.2832685 -0.28388935
42 0.14558813 0.39137948 -0.32196525 0.49571103 -0.14907111 0.22789955 0.45381197 0.101824105 -0.22633828 1.3577465 0.25737208 0.20165388 -0.64251566 0.4758799 0.21493636 0.34611532 -0.5935021 -0.13059318 1.1993598 -0.078419566 0.14236167 0.7217943 1.5276165 0.46644497 0.7963339 -0.12239133 -0.37962198 -0.6389377 0.6913837 -0.12168039 -0.033703018 1.042995 -1.0003719 0.17433159 -0.35841644 -0.5422674 -0.8157813 0.42594653 0.0542096 -0.29838285 -0.01550969 -0.21904925 -0.70590967 -0.058903333 -0.21057604 -0.89248186 -0.6677979 -0.4556392 0.062278725 -0.3351082 0.15837702 0.13841447 0.36374545 0.49647427 0.20426932 -0.5538309 0.29826796 0.6112828 0.716286 -0.5941578 0.15477084 -0.07454786 0.41596302 -0.07731802
